<?xml version="1.0"?>
<MethodSetup Method="BDT::BDTG">
  <GeneralInfo>
    <Info name="TMVA Release" value="4.2.1 [262657]"/>
    <Info name="ROOT Release" value="6.22/06 [398854]"/>
    <Info name="Creator" value="imawby"/>
    <Info name="Date" value="Thu Jul 15 16:00:52 2021"/>
    <Info name="Host" value="Linux buildservice004.fnal.gov 3.10.0-1160.11.1.el7.x86_64 #1 SMP Tue Dec 15 08:51:23 CST 2020 x86_64 x86_64 x86_64 GNU/Linux"/>
    <Info name="Dir" value="/dune/app/users/imawby/selection/trainings/electronSelector"/>
    <Info name="Training events" value="41003"/>
    <Info name="TrainingTime" value="1.66218150e+01"/>
    <Info name="AnalysisType" value="Classification"/>
  </GeneralInfo>
  <Options>
    <Option name="V" modified="Yes">False</Option>
    <Option name="VerbosityLevel" modified="No">Default</Option>
    <Option name="VarTransform" modified="No">None</Option>
    <Option name="H" modified="Yes">False</Option>
    <Option name="CreateMVAPdfs" modified="No">False</Option>
    <Option name="IgnoreNegWeightsInTraining" modified="No">False</Option>
    <Option name="NTrees" modified="Yes">1000</Option>
    <Option name="MaxDepth" modified="Yes">2</Option>
    <Option name="MinNodeSize" modified="Yes">2.5%</Option>
    <Option name="nCuts" modified="Yes">20</Option>
    <Option name="BoostType" modified="Yes">Grad</Option>
    <Option name="AdaBoostR2Loss" modified="No">quadratic</Option>
    <Option name="UseBaggedBoost" modified="Yes">True</Option>
    <Option name="Shrinkage" modified="Yes">1.000000e-01</Option>
    <Option name="AdaBoostBeta" modified="No">5.000000e-01</Option>
    <Option name="UseRandomisedTrees" modified="No">False</Option>
    <Option name="UseNvars" modified="No">3</Option>
    <Option name="UsePoissonNvars" modified="No">True</Option>
    <Option name="BaggedSampleFraction" modified="Yes">5.000000e-01</Option>
    <Option name="UseYesNoLeaf" modified="No">True</Option>
    <Option name="NegWeightTreatment" modified="No">pray</Option>
    <Option name="Css" modified="No">1.000000e+00</Option>
    <Option name="Cts_sb" modified="No">1.000000e+00</Option>
    <Option name="Ctb_ss" modified="No">1.000000e+00</Option>
    <Option name="Cbb" modified="No">1.000000e+00</Option>
    <Option name="NodePurityLimit" modified="No">5.000000e-01</Option>
    <Option name="SeparationType" modified="No">giniindex</Option>
    <Option name="RegressionLossFunctionBDTG" modified="No">huber</Option>
    <Option name="HuberQuantile" modified="No">7.000000e-01</Option>
    <Option name="DoBoostMonitor" modified="No">False</Option>
    <Option name="UseFisherCuts" modified="No">False</Option>
    <Option name="MinLinCorrForFisher" modified="No">8.000000e-01</Option>
    <Option name="UseExclusiveVars" modified="No">False</Option>
    <Option name="DoPreselection" modified="No">False</Option>
    <Option name="SigToBkgFraction" modified="No">1.000000e+00</Option>
    <Option name="PruneMethod" modified="No">nopruning</Option>
    <Option name="PruneStrength" modified="No">0.000000e+00</Option>
    <Option name="PruningValFraction" modified="No">5.000000e-01</Option>
    <Option name="SkipNormalization" modified="No">False</Option>
    <Option name="nEventsMin" modified="No">0</Option>
    <Option name="UseBaggedGrad" modified="No">False</Option>
    <Option name="GradBaggingFraction" modified="No">5.000000e-01</Option>
    <Option name="UseNTrainEvents" modified="No">0</Option>
    <Option name="NNodesMax" modified="No">0</Option>
  </Options>
  <Variables NVar="9">
    <Variable VarIndex="0" Expression="EvalRatio" Label="EvalRatio" Title="Eval ratio" Unit="F" Internal="EvalRatio" Type="F" Min="-5.00000000e-01" Max="1.05568564e+00"/>
    <Variable VarIndex="1" Expression="Concentration" Label="Concentration" Title="Concentration" Unit="F" Internal="Concentration" Type="F" Min="-2.00000000e+00" Max="5.00000000e+01"/>
    <Variable VarIndex="2" Expression="CoreHaloRatio" Label="CoreHaloRatio" Title="Core halo ratio" Unit="F" Internal="CoreHaloRatio" Type="F" Min="0.00000000e+00" Max="1.00000000e+02"/>
    <Variable VarIndex="3" Expression="Conicalness" Label="Conicalness" Title="Conicalness" Unit="F" Internal="Conicalness" Type="F" Min="2.02891720e-03" Max="1.00000000e+02"/>
    <Variable VarIndex="4" Expression="dEdxBestPlane" Label="dEdxBestPlane" Title="dE/dx (best plane)" Unit="F" Internal="dEdxBestPlane" Type="F" Min="-2.00000000e+00" Max="2.00000000e+01"/>
    <Variable VarIndex="5" Expression="Displacement" Label="Displacement" Title="Displacement" Unit="F" Internal="Displacement" Type="F" Min="0.00000000e+00" Max="1.00000000e+02"/>
    <Variable VarIndex="6" Expression="DCA" Label="DCA" Title="Distance of closest approach" Unit="F" Internal="DCA" Type="F" Min="0.00000000e+00" Max="5.00000000e+01"/>
    <Variable VarIndex="7" Expression="Wideness" Label="Wideness" Title="Wideness" Unit="F" Internal="Wideness" Type="F" Min="-9.99999978e-03" Max="1.00000001e-01"/>
    <Variable VarIndex="8" Expression="EnergyDensity" Label="EnergyDensity" Title="Energy density" Unit="F" Internal="EnergyDensity" Type="F" Min="-1.00000001e-01" Max="5.00000000e+00"/>
  </Variables>
  <Spectators NSpec="0"/>
  <Classes NClass="2">
    <Class Name="Signal" Index="0"/>
    <Class Name="Background" Index="1"/>
  </Classes>
  <Transformations NTransformations="0"/>
  <MVAPdfs/>
  <Weights NTrees="1000" AnalysisType="1">
    <BinaryTree type="DecisionTree" boostWeight="1.0000000000000000e+00" itree="0">
      <Node pos="s" depth="0" NCoef="0" IVar="5" Cut="4.7619047164916992e+00" cType="1" res="-1.7502305563539267e-03" rms="4.9999693036079407e-01" purity="4.9824976921081543e-01" nType="0">
        <Node pos="l" depth="1" NCoef="0" IVar="7" Cut="5.7142861187458038e-03" cType="1" res="2.6072254776954651e-01" rms="4.2664241790771484e-01" purity="7.6072257757186890e-01" nType="0">
          <Node pos="l" depth="2" NCoef="0" IVar="-1" Cut="0.0000000000000000e+00" cType="1" res="6.1776947230100632e-02" rms="3.9317962527275085e-01" purity="8.0888473987579346e-01" nType="-99"/>
          <Node pos="r" depth="2" NCoef="0" IVar="-1" Cut="0.0000000000000000e+00" cType="1" res="-4.9008508212864399e-03" rms="4.9939918518066406e-01" purity="4.7549572587013245e-01" nType="-99"/>
        </Node>
        <Node pos="r" depth="1" NCoef="0" IVar="4" Cut="3.2380952835083008e+00" cType="1" res="-1.7468030750751495e-01" rms="4.6849417686462402e-01" purity="3.2531967759132385e-01" nType="0">
          <Node pos="l" depth="2" NCoef="0" IVar="-1" Cut="0.0000000000000000e+00" cType="1" res="-2.3482374846935272e-02" rms="4.8601898550987244e-01" purity="3.8258811831474304e-01" nType="-99"/>
          <Node pos="r" depth="2" NCoef="0" IVar="-1" Cut="0.0000000000000000e+00" cType="1" res="-5.1646061241626740e-02" rms="4.2815548181533813e-01" purity="2.4176968634128571e-01" nType="-99"/>
        </Node>
      </Node>
    </BinaryTree>
    <BinaryTree type="DecisionTree" boostWeight="1.0000000000000000e+00" itree="1">
      <Node pos="s" depth="0" NCoef="0" IVar="6" Cut="7.1428570747375488e+00" cType="1" res="4.2254305444657803e-03" rms="4.8988789319992065e-01" purity="5.0368613004684448e-01" nType="0">
        <Node pos="l" depth="1" NCoef="0" IVar="7" Cut="5.7142861187458038e-03" cType="1" res="2.4973924458026886e-01" rms="4.1399139165878296e-01" purity="7.7534234523773193e-01" nType="0">
          <Node pos="l" depth="2" NCoef="0" IVar="-1" Cut="0.0000000000000000e+00" cType="1" res="5.8667201548814774e-02" rms="3.8158252835273743e-01" purity="8.2273042201995850e-01" nType="-99"/>
          <Node pos="r" depth="2" NCoef="0" IVar="-1" Cut="0.0000000000000000e+00" cType="1" res="1.1878016266564373e-05" rms="4.9996861815452576e-01" purity="4.9684858322143555e-01" nType="-99"/>
        </Node>
        <Node pos="r" depth="1" NCoef="0" IVar="4" Cut="3.2380952835083008e+00" cType="1" res="-1.4337036013603210e-01" rms="4.7245100140571594e-01" purity="3.4037429094314575e-01" nType="0">
          <Node pos="l" depth="2" NCoef="0" IVar="-1" Cut="0.0000000000000000e+00" cType="1" res="-1.9455207511782646e-02" rms="4.8770287632942200e-01" purity="3.9197185635566711e-01" nType="-99"/>
          <Node pos="r" depth="2" NCoef="0" IVar="-1" Cut="0.0000000000000000e+00" cType="1" res="-4.1483104228973389e-02" rms="4.4283658266067505e-01" purity="2.6939687132835388e-01" nType="-99"/>
        </Node>
      </Node>
    </BinaryTree>
    <BinaryTree type="DecisionTree" boostWeight="1.0000000000000000e+00" itree="2">
      <Node pos="s" depth="0" NCoef="0" IVar="6" Cut="9.5238094329833984e+00" cType="1" res="-2.6426187250763178e-03" rms="4.8147532343864441e-01" purity="4.9766147136688232e-01" nType="0">
        <Node pos="l" depth="1" NCoef="0" IVar="7" Cut="5.7142861187458038e-03" cType="1" res="2.0430305600166321e-01" rms="4.2506289482116699e-01" purity="7.5061696767807007e-01" nType="0">
          <Node pos="l" depth="2" NCoef="0" IVar="-1" Cut="0.0000000000000000e+00" cType="1" res="5.0040137022733688e-02" rms="3.9589890837669373e-01" purity="8.0254095792770386e-01" nType="-99"/>
          <Node pos="r" depth="2" NCoef="0" IVar="-1" Cut="0.0000000000000000e+00" cType="1" res="-7.4501587077975273e-03" rms="4.9806475639343262e-01" purity="4.5568099617958069e-01" nType="-99"/>
        </Node>
        <Node pos="r" depth="1" NCoef="0" IVar="5" Cut="9.5465446472167969e+01" cType="1" res="-1.4510799944400787e-01" rms="4.6609577536582947e-01" purity="3.2352209091186523e-01" nType="0">
          <Node pos="l" depth="2" NCoef="0" IVar="-1" Cut="0.0000000000000000e+00" cType="1" res="-3.7888191640377045e-02" rms="4.4702589511871338e-01" purity="2.7873295545578003e-01" nType="-99"/>
          <Node pos="r" depth="2" NCoef="0" IVar="-1" Cut="0.0000000000000000e+00" cType="1" res="-1.0911543853580952e-02" rms="4.9140661954879761e-01" purity="4.1717538237571716e-01" nType="-99"/>
        </Node>
      </Node>
    </BinaryTree>
    <BinaryTree type="DecisionTree" boostWeight="1.0000000000000000e+00" itree="3">
      <Node pos="s" depth="0" NCoef="0" IVar="6" Cut="7.1428570747375488e+00" cType="1" res="-1.4046313008293509e-03" rms="4.7418516874313354e-01" purity="4.9814465641975403e-01" nType="0">
        <Node pos="l" depth="1" NCoef="0" IVar="1" Cut="2.4037387371063232e+00" cType="1" res="2.0589415729045868e-01" rms="4.0833753347396851e-01" purity="7.7746921777725220e-01" nType="0">
          <Node pos="l" depth="2" NCoef="0" IVar="-1" Cut="0.0000000000000000e+00" cType="1" res="4.8864133656024933e-02" rms="3.8398736715316772e-01" purity="8.1301563978195190e-01" nType="-99"/>
          <Node pos="r" depth="2" NCoef="0" IVar="-1" Cut="0.0000000000000000e+00" cType="1" res="-1.0761545039713383e-02" rms="4.9652895331382751e-01" purity="4.9165329337120056e-01" nType="-99"/>
        </Node>
        <Node pos="r" depth="1" NCoef="0" IVar="0" Cut="1.6672241687774658e-01" cType="1" res="-1.2508280575275421e-01" rms="4.6753355860710144e-01" purity="3.3149456977844238e-01" nType="0">
          <Node pos="l" depth="2" NCoef="0" IVar="-1" Cut="0.0000000000000000e+00" cType="1" res="-3.0643342062830925e-02" rms="4.5685932040214539e-01" purity="3.0468055605888367e-01" nType="-99"/>
          <Node pos="r" depth="2" NCoef="0" IVar="-1" Cut="0.0000000000000000e+00" cType="1" res="-3.9473189972341061e-03" rms="4.9352625012397766e-01" purity="4.3731454014778137e-01" nType="-99"/>
        </Node>
      </Node>
    </BinaryTree>
    <BinaryTree type="DecisionTree" boostWeight="1.0000000000000000e+00" itree="4">
      <Node pos="s" depth="0" NCoef="0" IVar="6" Cut="7.1428570747375488e+00" cType="1" res="8.6208304855972528e-04" rms="4.6830517053604126e-01" purity="5.0133943557739258e-01" nType="0">
        <Node pos="l" depth="1" NCoef="0" IVar="7" Cut="4.7620404511690140e-03" cType="1" res="1.8244527280330658e-01" rms="4.0777561068534851e-01" purity="7.7465236186981201e-01" nType="0">
          <Node pos="l" depth="2" NCoef="0" IVar="-1" Cut="0.0000000000000000e+00" cType="1" res="4.7039616852998734e-02" rms="3.7362316250801086e-01" purity="8.3026474714279175e-01" nType="-99"/>
          <Node pos="r" depth="2" NCoef="0" IVar="-1" Cut="0.0000000000000000e+00" cType="1" res="-6.1524240300059319e-03" rms="4.9663755297660828e-01" purity="4.9394384026527405e-01" nType="-99"/>
        </Node>
        <Node pos="r" depth="1" NCoef="0" IVar="4" Cut="4.2857141494750977e+00" cType="1" res="-1.1005570739507675e-01" rms="4.6825009584426880e-01" purity="3.3438977599143982e-01" nType="0">
          <Node pos="l" depth="2" NCoef="0" IVar="-1" Cut="0.0000000000000000e+00" cType="1" res="-1.5423662960529327e-02" rms="4.8176008462905884e-01" purity="3.7495616078376770e-01" nType="-99"/>
          <Node pos="r" depth="2" NCoef="0" IVar="-1" Cut="0.0000000000000000e+00" cType="1" res="-3.6781590431928635e-02" rms="4.3058663606643677e-01" purity="2.5032907724380493e-01" nType="-99"/>
        </Node>
      </Node>
    </BinaryTree>
    <BinaryTree type="DecisionTree" boostWeight="1.0000000000000000e+00" itree="5">
      <Node pos="s" depth="0" NCoef="0" IVar="5" Cut="4.7619047164916992e+00" cType="1" res="-7.0592258125543594e-03" rms="4.6249899268150330e-01" purity="4.9228677153587341e-01" nType="0">
        <Node pos="l" depth="1" NCoef="0" IVar="4" Cut="3.2380952835083008e+00" cType="1" res="1.5596620738506317e-01" rms="4.1217872500419617e-01" purity="7.6140266656875610e-01" nType="0">
          <Node pos="l" depth="2" NCoef="0" IVar="-1" Cut="0.0000000000000000e+00" cType="1" res="5.0704281777143478e-02" rms="3.4509134292602539e-01" purity="8.4814405441284180e-01" nType="-99"/>
          <Node pos="r" depth="2" NCoef="0" IVar="-1" Cut="0.0000000000000000e+00" cType="1" res="1.0128321126103401e-02" rms="4.6352156996726990e-01" purity="6.4934766292572021e-01" nType="-99"/>
        </Node>
        <Node pos="r" depth="1" NCoef="0" IVar="0" Cut="5.6810267269611359e-02" cType="1" res="-1.1174080520868301e-01" rms="4.6275642514228821e-01" purity="3.1948250532150269e-01" nType="0">
          <Node pos="l" depth="2" NCoef="0" IVar="-1" Cut="0.0000000000000000e+00" cType="1" res="-3.0901726335287094e-02" rms="4.4439837336540222e-01" purity="2.7727174758911133e-01" nType="-99"/>
          <Node pos="r" depth="2" NCoef="0" IVar="-1" Cut="0.0000000000000000e+00" cType="1" res="-1.0860650800168514e-02" rms="4.8287525773048401e-01" purity="3.8219919800758362e-01" nType="-99"/>
        </Node>
      </Node>
    </BinaryTree>
    <BinaryTree type="DecisionTree" boostWeight="1.0000000000000000e+00" itree="6">
      <Node pos="s" depth="0" NCoef="0" IVar="6" Cut="4.7619047164916992e+00" cType="1" res="-2.1912697702646255e-03" rms="4.5788860321044922e-01" purity="4.9885135889053345e-01" nType="0">
        <Node pos="l" depth="1" NCoef="0" IVar="7" Cut="5.7142861187458038e-03" cType="1" res="1.6517308354377747e-01" rms="3.9165663719177246e-01" purity="7.9280030727386475e-01" nType="0">
          <Node pos="l" depth="2" NCoef="0" IVar="-1" Cut="0.0000000000000000e+00" cType="1" res="4.2793914675712585e-02" rms="3.6329922080039978e-01" purity="8.3958423137664795e-01" nType="-99"/>
          <Node pos="r" depth="2" NCoef="0" IVar="-1" Cut="0.0000000000000000e+00" cType="1" res="-8.6497524753212929e-03" rms="4.9701821804046631e-01" purity="4.7923272848129272e-01" nType="-99"/>
        </Node>
        <Node pos="r" depth="1" NCoef="0" IVar="6" Cut="1.3381344795227051e+01" cType="1" res="-8.6397148668766022e-02" rms="4.6560484170913696e-01" purity="3.5095712542533875e-01" nType="0">
          <Node pos="l" depth="2" NCoef="0" IVar="-1" Cut="0.0000000000000000e+00" cType="1" res="4.3395701795816422e-03" rms="4.8278883099555969e-01" purity="5.3712010383605957e-01" nType="-99"/>
          <Node pos="r" depth="2" NCoef="0" IVar="-1" Cut="0.0000000000000000e+00" cType="1" res="-2.2770209237933159e-02" rms="4.5814201235771179e-01" purity="3.0876761674880981e-01" nType="-99"/>
        </Node>
      </Node>
    </BinaryTree>
    <BinaryTree type="DecisionTree" boostWeight="1.0000000000000000e+00" itree="7">
      <Node pos="s" depth="0" NCoef="0" IVar="5" Cut="4.7619047164916992e+00" cType="1" res="5.4073594510555267e-03" rms="4.5334935188293457e-01" purity="5.0585806369781494e-01" nType="0">
        <Node pos="l" depth="1" NCoef="0" IVar="4" Cut="3.2380952835083008e+00" cType="1" res="1.4321355521678925e-01" rms="4.0017274022102356e-01" purity="7.7695184946060181e-01" nType="0">
          <Node pos="l" depth="2" NCoef="0" IVar="-1" Cut="0.0000000000000000e+00" cType="1" res="4.6269472688436508e-02" rms="3.3661845326423645e-01" purity="8.5534149408340454e-01" nType="-99"/>
          <Node pos="r" depth="2" NCoef="0" IVar="-1" Cut="0.0000000000000000e+00" cType="1" res="1.2240523472428322e-02" rms="4.5642668008804321e-01" purity="6.7430663108825684e-01" nType="-99"/>
        </Node>
        <Node pos="r" depth="1" NCoef="0" IVar="5" Cut="9.5464912414550781e+01" cType="1" res="-8.7309390306472778e-02" rms="4.6334564685821533e-01" purity="3.2346475124359131e-01" nType="0">
          <Node pos="l" depth="2" NCoef="0" IVar="-1" Cut="0.0000000000000000e+00" cType="1" res="-2.6184808462858200e-02" rms="4.4509541988372803e-01" purity="2.8039839863777161e-01" nType="-99"/>
          <Node pos="r" depth="2" NCoef="0" IVar="-1" Cut="0.0000000000000000e+00" cType="1" res="6.9307978264987469e-05" rms="4.9107736349105835e-01" purity="4.2098459601402283e-01" nType="-99"/>
        </Node>
      </Node>
    </BinaryTree>
    <BinaryTree type="DecisionTree" boostWeight="1.0000000000000000e+00" itree="8">
      <Node pos="s" depth="0" NCoef="0" IVar="6" Cut="4.7619047164916992e+00" cType="1" res="4.7004413791000843e-03" rms="4.5123603940010071e-01" purity="5.0545179843902588e-01" nType="0">
        <Node pos="l" depth="1" NCoef="0" IVar="4" Cut="3.2380952835083008e+00" cType="1" res="1.4248862862586975e-01" rms="3.8397502899169922e-01" purity="8.0094665288925171e-01" nType="0">
          <Node pos="l" depth="2" NCoef="0" IVar="-1" Cut="0.0000000000000000e+00" cType="1" res="4.5845184475183487e-02" rms="3.1828185915946960e-01" purity="8.7449938058853149e-01" nType="-99"/>
          <Node pos="r" depth="2" NCoef="0" IVar="-1" Cut="0.0000000000000000e+00" cType="1" res="1.4211549423635006e-02" rms="4.4711047410964966e-01" purity="7.0071685314178467e-01" nType="-99"/>
        </Node>
        <Node pos="r" depth="1" NCoef="0" IVar="4" Cut="3.2380952835083008e+00" cType="1" res="-6.3522398471832275e-02" rms="4.6623405814170837e-01" purity="3.5914400219917297e-01" nType="0">
          <Node pos="l" depth="2" NCoef="0" IVar="-1" Cut="0.0000000000000000e+00" cType="1" res="-3.5126404836773872e-03" rms="4.8220342397689819e-01" purity="4.1756781935691833e-01" nType="-99"/>
          <Node pos="r" depth="2" NCoef="0" IVar="-1" Cut="0.0000000000000000e+00" cType="1" res="-2.7483388781547546e-02" rms="4.3404376506805420e-01" purity="2.7610781788825989e-01" nType="-99"/>
        </Node>
      </Node>
    </BinaryTree>
    <BinaryTree type="DecisionTree" boostWeight="1.0000000000000000e+00" itree="9">
      <Node pos="s" depth="0" NCoef="0" IVar="6" Cut="1.1904762268066406e+01" cType="1" res="3.5652271471917629e-03" rms="4.4881355762481689e-01" purity="5.0376516580581665e-01" nType="0">
        <Node pos="l" depth="1" NCoef="0" IVar="8" Cut="1.4285713434219360e-01" cType="1" res="1.0368765890598297e-01" rms="4.1148823499679565e-01" purity="7.3873257637023926e-01" nType="0">
          <Node pos="l" depth="2" NCoef="0" IVar="-1" Cut="0.0000000000000000e+00" cType="1" res="3.0273379758000374e-02" rms="3.9102697372436523e-01" purity="7.8150302171707153e-01" nType="-99"/>
          <Node pos="r" depth="2" NCoef="0" IVar="-1" Cut="0.0000000000000000e+00" cType="1" res="-2.2239366546273232e-02" rms="4.8448467254638672e-01" purity="4.3767860531806946e-01" nType="-99"/>
        </Node>
        <Node pos="r" depth="1" NCoef="0" IVar="5" Cut="6.8667968750000000e+01" cType="1" res="-7.5235702097415924e-02" rms="4.6109339594841003e-01" purity="3.1883510947227478e-01" nType="0">
          <Node pos="l" depth="2" NCoef="0" IVar="-1" Cut="0.0000000000000000e+00" cType="1" res="-2.6136020198464394e-02" rms="4.3554371595382690e-01" purity="2.5937637686729431e-01" nType="-99"/>
          <Node pos="r" depth="2" NCoef="0" IVar="-1" Cut="0.0000000000000000e+00" cType="1" res="-3.3697648905217648e-03" rms="4.8423787951469421e-01" purity="3.9199751615524292e-01" nType="-99"/>
        </Node>
      </Node>
    </BinaryTree>
    <BinaryTree type="DecisionTree" boostWeight="1.0000000000000000e+00" itree="10">
      <Node pos="s" depth="0" NCoef="0" IVar="6" Cut="1.4285714149475098e+01" cType="1" res="-1.5646162501070648e-04" rms="4.4712010025978088e-01" purity="4.9970254302024841e-01" nType="0">
        <Node pos="l" depth="1" NCoef="0" IVar="1" Cut="2.4084892272949219e+00" cType="1" res="8.5265770554542542e-02" rms="4.1696575284004211e-01" purity="7.2121751308441162e-01" nType="0">
          <Node pos="l" depth="2" NCoef="0" IVar="-1" Cut="0.0000000000000000e+00" cType="1" res="2.6068663224577904e-02" rms="3.9721685647964478e-01" purity="7.6728421449661255e-01" nType="-99"/>
          <Node pos="r" depth="2" NCoef="0" IVar="-1" Cut="0.0000000000000000e+00" cType="1" res="-1.6899755224585533e-02" rms="4.8712924122810364e-01" purity="4.4808471202850342e-01" nType="-99"/>
        </Node>
        <Node pos="r" depth="1" NCoef="0" IVar="5" Cut="9.5579948425292969e+01" cType="1" res="-7.1202382445335388e-02" rms="4.5877096056938171e-01" purity="3.1546780467033386e-01" nType="0">
          <Node pos="l" depth="2" NCoef="0" IVar="-1" Cut="0.0000000000000000e+00" cType="1" res="-2.3375663906335831e-02" rms="4.3721094727516174e-01" purity="2.6368933916091919e-01" nType="-99"/>
          <Node pos="r" depth="2" NCoef="0" IVar="-1" Cut="0.0000000000000000e+00" cType="1" res="4.2540350113995373e-04" rms="4.8961642384529114e-01" purity="4.1569775342941284e-01" nType="-99"/>
        </Node>
      </Node>
    </BinaryTree>
    <BinaryTree type="DecisionTree" boostWeight="1.0000000000000000e+00" itree="11">
      <Node pos="s" depth="0" NCoef="0" IVar="6" Cut="1.1904762268066406e+01" cType="1" res="-4.4069616124033928e-03" rms="4.4218078255653381e-01" purity="4.9699276685714722e-01" nType="0">
        <Node pos="l" depth="1" NCoef="0" IVar="4" Cut="3.2380952835083008e+00" cType="1" res="8.6428910493850708e-02" rms="4.0956676006317139e-01" purity="7.4153429269790649e-01" nType="0">
          <Node pos="l" depth="2" NCoef="0" IVar="-1" Cut="0.0000000000000000e+00" cType="1" res="3.4364078193902969e-02" rms="3.5431319475173950e-01" purity="8.2388448715209961e-01" nType="-99"/>
          <Node pos="r" depth="2" NCoef="0" IVar="-1" Cut="0.0000000000000000e+00" cType="1" res="2.8728984761983156e-03" rms="4.6100363135337830e-01" purity="6.3545143604278564e-01" nType="-99"/>
        </Node>
        <Node pos="r" depth="1" NCoef="0" IVar="4" Cut="3.2380952835083008e+00" cType="1" res="-7.6460592448711395e-02" rms="4.5367619395256042e-01" purity="3.0301541090011597e-01" nType="0">
          <Node pos="l" depth="2" NCoef="0" IVar="-1" Cut="0.0000000000000000e+00" cType="1" res="-6.9116586819291115e-03" rms="4.7928616404533386e-01" purity="3.6645594239234924e-01" nType="-99"/>
          <Node pos="r" depth="2" NCoef="0" IVar="-1" Cut="0.0000000000000000e+00" cType="1" res="-3.0823554843664169e-02" rms="4.0501478314399719e-01" purity="2.1010041236877441e-01" nType="-99"/>
        </Node>
      </Node>
    </BinaryTree>
    <BinaryTree type="DecisionTree" boostWeight="1.0000000000000000e+00" itree="12">
      <Node pos="s" depth="0" NCoef="0" IVar="6" Cut="4.7619047164916992e+00" cType="1" res="-1.6522854275535792e-04" rms="4.4104278087615967e-01" purity="5.0204825401306152e-01" nType="0">
        <Node pos="l" depth="1" NCoef="0" IVar="2" Cut="5.2380950927734375e+01" cType="1" res="9.8798625171184540e-02" rms="3.8117593526840210e-01" purity="7.9913794994354248e-01" nType="0">
          <Node pos="l" depth="2" NCoef="0" IVar="-1" Cut="0.0000000000000000e+00" cType="1" res="2.8947044163942337e-02" rms="3.6282065510749817e-01" purity="8.2126182317733765e-01" nType="-99"/>
          <Node pos="r" depth="2" NCoef="0" IVar="-1" Cut="0.0000000000000000e+00" cType="1" res="-3.0489645898342133e-02" rms="4.9385574460029602e-01" purity="5.4610258340835571e-01" nType="-99"/>
        </Node>
        <Node pos="r" depth="1" NCoef="0" IVar="4" Cut="3.2380952835083008e+00" cType="1" res="-5.0821926444768906e-02" rms="4.6058177947998047e-01" purity="3.4997668862342834e-01" nType="0">
          <Node pos="l" depth="2" NCoef="0" IVar="-1" Cut="0.0000000000000000e+00" cType="1" res="-3.3844644203782082e-03" rms="4.7778192162513733e-01" purity="4.0526869893074036e-01" nType="-99"/>
          <Node pos="r" depth="2" NCoef="0" IVar="-1" Cut="0.0000000000000000e+00" cType="1" res="-2.1883947774767876e-02" rms="4.3109494447708130e-01" purity="2.7351665496826172e-01" nType="-99"/>
        </Node>
      </Node>
    </BinaryTree>
    <BinaryTree type="DecisionTree" boostWeight="1.0000000000000000e+00" itree="13">
      <Node pos="s" depth="0" NCoef="0" IVar="6" Cut="7.1428570747375488e+00" cType="1" res="3.3106680493801832e-03" rms="4.4217383861541748e-01" purity="5.0305867195129395e-01" nType="0">
        <Node pos="l" depth="1" NCoef="0" IVar="8" Cut="1.4285713434219360e-01" cType="1" res="7.6023541390895844e-02" rms="3.9528721570968628e-01" purity="7.7560359239578247e-01" nType="0">
          <Node pos="l" depth="2" NCoef="0" IVar="-1" Cut="0.0000000000000000e+00" cType="1" res="2.4686807766556740e-02" rms="3.7565106153488159e-01" purity="8.1114369630813599e-01" nType="-99"/>
          <Node pos="r" depth="2" NCoef="0" IVar="-1" Cut="0.0000000000000000e+00" cType="1" res="-2.8898572549223900e-02" rms="4.9185052514076233e-01" purity="4.5704260468482971e-01" nType="-99"/>
        </Node>
        <Node pos="r" depth="1" NCoef="0" IVar="4" Cut="3.2380952835083008e+00" cType="1" res="-4.1486866772174835e-02" rms="4.6308168768882751e-01" purity="3.3514693379402161e-01" nType="0">
          <Node pos="l" depth="2" NCoef="0" IVar="-1" Cut="0.0000000000000000e+00" cType="1" res="-1.3471454149112105e-03" rms="4.8488941788673401e-01" purity="3.9651352167129517e-01" nType="-99"/>
          <Node pos="r" depth="2" NCoef="0" IVar="-1" Cut="0.0000000000000000e+00" cType="1" res="-2.0796252414584160e-02" rms="4.2434662580490112e-01" purity="2.4608395993709564e-01" nType="-99"/>
        </Node>
      </Node>
    </BinaryTree>
    <BinaryTree type="DecisionTree" boostWeight="1.0000000000000000e+00" itree="14">
      <Node pos="s" depth="0" NCoef="0" IVar="6" Cut="1.4285714149475098e+01" cType="1" res="3.7379893474280834e-03" rms="4.4036307930946350e-01" purity="5.0365728139877319e-01" nType="0">
        <Node pos="l" depth="1" NCoef="0" IVar="4" Cut="4.2857141494750977e+00" cType="1" res="6.1980690807104111e-02" rms="4.1078123450279236e-01" purity="7.2314274311065674e-01" nType="0">
          <Node pos="l" depth="2" NCoef="0" IVar="-1" Cut="0.0000000000000000e+00" cType="1" res="2.7144948020577431e-02" rms="3.6606776714324951e-01" purity="7.9638516902923584e-01" nType="-99"/>
          <Node pos="r" depth="2" NCoef="0" IVar="-1" Cut="0.0000000000000000e+00" cType="1" res="-3.9194347336888313e-03" rms="4.6598646044731140e-01" purity="5.9997642040252686e-01" nType="-99"/>
        </Node>
        <Node pos="r" depth="1" NCoef="0" IVar="5" Cut="9.5578842163085938e+01" cType="1" res="-4.5556508004665375e-02" rms="4.5817980170249939e-01" purity="3.1789276003837585e-01" nType="0">
          <Node pos="l" depth="2" NCoef="0" IVar="-1" Cut="0.0000000000000000e+00" cType="1" res="-1.7406778410077095e-02" rms="4.3786695599555969e-01" purity="2.6631808280944824e-01" nType="-99"/>
          <Node pos="r" depth="2" NCoef="0" IVar="-1" Cut="0.0000000000000000e+00" cType="1" res="3.3475146628916264e-03" rms="4.8833632469177246e-01" purity="4.1519054770469666e-01" nType="-99"/>
        </Node>
      </Node>
    </BinaryTree>
    <BinaryTree type="DecisionTree" boostWeight="1.0000000000000000e+00" itree="15">
      <Node pos="s" depth="0" NCoef="0" IVar="6" Cut="1.6666666030883789e+01" cType="1" res="-1.1180960573256016e-03" rms="4.3769276142120361e-01" purity="5.0047183036804199e-01" nType="0">
        <Node pos="l" depth="1" NCoef="0" IVar="7" Cut="5.7142861187458038e-03" cType="1" res="5.2935071289539337e-02" rms="4.1302764415740967e-01" purity="7.1142172813415527e-01" nType="0">
          <Node pos="l" depth="2" NCoef="0" IVar="-1" Cut="0.0000000000000000e+00" cType="1" res="2.0310530439019203e-02" rms="3.8809338212013245e-01" purity="7.7244549989700317e-01" nType="-99"/>
          <Node pos="r" depth="2" NCoef="0" IVar="-1" Cut="0.0000000000000000e+00" cType="1" res="-1.4820308424532413e-02" rms="4.9129173159599304e-01" purity="4.3779566884040833e-01" nType="-99"/>
        </Node>
        <Node pos="r" depth="1" NCoef="0" IVar="5" Cut="7.3816390991210938e+01" cType="1" res="-5.0069365650415421e-02" rms="4.5336008071899414e-01" purity="3.0943283438682556e-01" nType="0">
          <Node pos="l" depth="2" NCoef="0" IVar="-1" Cut="0.0000000000000000e+00" cType="1" res="-2.1266447380185127e-02" rms="4.2297729849815369e-01" purity="2.4008587002754211e-01" nType="-99"/>
          <Node pos="r" depth="2" NCoef="0" IVar="-1" Cut="0.0000000000000000e+00" cType="1" res="9.0496259508654475e-04" rms="4.8274436593055725e-01" purity="3.9500299096107483e-01" nType="-99"/>
        </Node>
      </Node>
    </BinaryTree>
    <BinaryTree type="DecisionTree" boostWeight="1.0000000000000000e+00" itree="16">
      <Node pos="s" depth="0" NCoef="0" IVar="3" Cut="4.7638368606567383e+00" cType="1" res="1.4531672932207584e-03" rms="4.3979290127754211e-01" purity="5.0013738870620728e-01" nType="0">
        <Node pos="l" depth="1" NCoef="0" IVar="0" Cut="1.2997487187385559e-01" cType="1" res="-2.3647557944059372e-02" rms="4.5138153433799744e-01" purity="4.3874979019165039e-01" nType="0">
          <Node pos="l" depth="2" NCoef="0" IVar="-1" Cut="0.0000000000000000e+00" cType="1" res="-1.0667424649000168e-02" rms="4.4545903801918030e-01" purity="3.9636376500129700e-01" nType="-99"/>
          <Node pos="r" depth="2" NCoef="0" IVar="-1" Cut="0.0000000000000000e+00" cType="1" res="8.9477906003594398e-03" rms="4.6109646558761597e-01" purity="5.5288887023925781e-01" nType="-99"/>
        </Node>
        <Node pos="r" depth="1" NCoef="0" IVar="7" Cut="4.7698584385216236e-03" cType="1" res="8.4640204906463623e-02" rms="3.8753455877304077e-01" purity="7.0358389616012573e-01" nType="0">
          <Node pos="l" depth="2" NCoef="0" IVar="-1" Cut="0.0000000000000000e+00" cType="1" res="2.8416663408279419e-02" rms="3.6074814200401306e-01" purity="7.6417338848114014e-01" nType="-99"/>
          <Node pos="r" depth="2" NCoef="0" IVar="-1" Cut="0.0000000000000000e+00" cType="1" res="-8.2849115133285522e-03" rms="4.7642916440963745e-01" purity="4.1669219732284546e-01" nType="-99"/>
        </Node>
      </Node>
    </BinaryTree>
    <BinaryTree type="DecisionTree" boostWeight="1.0000000000000000e+00" itree="17">
      <Node pos="s" depth="0" NCoef="0" IVar="5" Cut="4.7619047164916992e+00" cType="1" res="4.7200121916830540e-03" rms="4.3624612689018250e-01" purity="5.0658255815505981e-01" nType="0">
        <Node pos="l" depth="1" NCoef="0" IVar="8" Cut="1.4285713434219360e-01" cType="1" res="5.8383222669363022e-02" rms="3.9178746938705444e-01" purity="7.7317148447036743e-01" nType="0">
          <Node pos="l" depth="2" NCoef="0" IVar="-1" Cut="0.0000000000000000e+00" cType="1" res="2.0806079730391502e-02" rms="3.7327978014945984e-01" purity="8.1053519248962402e-01" nType="-99"/>
          <Node pos="r" depth="2" NCoef="0" IVar="-1" Cut="0.0000000000000000e+00" cType="1" res="-2.4975012987852097e-02" rms="4.8512184619903564e-01" purity="4.6535909175872803e-01" nType="-99"/>
        </Node>
        <Node pos="r" depth="1" NCoef="0" IVar="0" Cut="1.3283255696296692e-01" cType="1" res="-3.1444936990737915e-02" rms="4.6029490232467651e-01" purity="3.2692179083824158e-01" nType="0">
          <Node pos="l" depth="2" NCoef="0" IVar="-1" Cut="0.0000000000000000e+00" cType="1" res="-1.1906227096915245e-02" rms="4.4909361004829407e-01" purity="2.9797017574310303e-01" nType="-99"/>
          <Node pos="r" depth="2" NCoef="0" IVar="-1" Cut="0.0000000000000000e+00" cType="1" res="8.6730392649769783e-03" rms="4.8790541291236877e-01" purity="4.2048153281211853e-01" nType="-99"/>
        </Node>
      </Node>
    </BinaryTree>
    <BinaryTree type="DecisionTree" boostWeight="1.0000000000000000e+00" itree="18">
      <Node pos="s" depth="0" NCoef="0" IVar="6" Cut="4.7619047164916992e+00" cType="1" res="-2.4668073747307062e-03" rms="4.3309435248374939e-01" purity="5.0060188770294189e-01" nType="0">
        <Node pos="l" depth="1" NCoef="0" IVar="2" Cut="5.2380950927734375e+01" cType="1" res="6.1722531914710999e-02" rms="3.7651619315147400e-01" purity="8.0049633979797363e-01" nType="0">
          <Node pos="l" depth="2" NCoef="0" IVar="-1" Cut="0.0000000000000000e+00" cType="1" res="2.1036108955740929e-02" rms="3.6133882403373718e-01" purity="8.1977522373199463e-01" nType="-99"/>
          <Node pos="r" depth="2" NCoef="0" IVar="-1" Cut="0.0000000000000000e+00" cType="1" res="-3.0300898477435112e-02" rms="4.7903078794479370e-01" purity="5.8578813076019287e-01" nType="-99"/>
        </Node>
        <Node pos="r" depth="1" NCoef="0" IVar="7" Cut="3.1904764473438263e-02" cType="1" res="-3.5222504287958145e-02" rms="4.5581802725791931e-01" purity="3.4756633639335632e-01" nType="0">
          <Node pos="l" depth="2" NCoef="0" IVar="-1" Cut="0.0000000000000000e+00" cType="1" res="-1.1830015107989311e-02" rms="4.4615593552589417e-01" purity="3.2798418402671814e-01" nType="-99"/>
          <Node pos="r" depth="2" NCoef="0" IVar="-1" Cut="0.0000000000000000e+00" cType="1" res="9.7453268244862556e-03" rms="4.8977911472320557e-01" purity="4.3773719668388367e-01" nType="-99"/>
        </Node>
      </Node>
    </BinaryTree>
    <BinaryTree type="DecisionTree" boostWeight="1.0000000000000000e+00" itree="19">
      <Node pos="s" depth="0" NCoef="0" IVar="3" Cut="4.7644672393798828e+00" cType="1" res="-4.5788846909999847e-03" rms="4.3399858474731445e-01" purity="4.9691432714462280e-01" nType="0">
        <Node pos="l" depth="1" NCoef="0" IVar="4" Cut="4.2857141494750977e+00" cType="1" res="-2.7634073048830032e-02" rms="4.4674256443977356e-01" purity="4.3293228745460510e-01" nType="0">
          <Node pos="l" depth="2" NCoef="0" IVar="-1" Cut="0.0000000000000000e+00" cType="1" res="-2.5019611348398030e-04" rms="4.5348292589187622e-01" purity="4.7625935077667236e-01" nType="-99"/>
          <Node pos="r" depth="2" NCoef="0" IVar="-1" Cut="0.0000000000000000e+00" cType="1" res="-1.9791435450315475e-02" rms="4.2680779099464417e-01" purity="3.4155973792076111e-01" nType="-99"/>
        </Node>
        <Node pos="r" depth="1" NCoef="0" IVar="7" Cut="4.7727352939546108e-03" cType="1" res="7.1982830762863159e-02" rms="3.7875413894653320e-01" purity="7.0938587188720703e-01" nType="0">
          <Node pos="l" depth="2" NCoef="0" IVar="-1" Cut="0.0000000000000000e+00" cType="1" res="2.7232198044657707e-02" rms="3.5397750139236450e-01" purity="7.7626353502273560e-01" nType="-99"/>
          <Node pos="r" depth="2" NCoef="0" IVar="-1" Cut="0.0000000000000000e+00" cType="1" res="-1.5624432824552059e-02" rms="4.5398929715156555e-01" purity="3.8813748955726624e-01" nType="-99"/>
        </Node>
      </Node>
    </BinaryTree>
    <BinaryTree type="DecisionTree" boostWeight="1.0000000000000000e+00" itree="20">
      <Node pos="s" depth="0" NCoef="0" IVar="3" Cut="4.7638368606567383e+00" cType="1" res="-5.7949614711105824e-03" rms="4.3691965937614441e-01" purity="4.9175453186035156e-01" nType="0">
        <Node pos="l" depth="1" NCoef="0" IVar="4" Cut="4.2857141494750977e+00" cType="1" res="-2.6902414858341217e-02" rms="4.4907328486442566e-01" purity="4.2816644906997681e-01" nType="0">
          <Node pos="l" depth="2" NCoef="0" IVar="-1" Cut="0.0000000000000000e+00" cType="1" res="2.5970538263209164e-04" rms="4.5519667863845825e-01" purity="4.7541317343711853e-01" nType="-99"/>
          <Node pos="r" depth="2" NCoef="0" IVar="-1" Cut="0.0000000000000000e+00" cType="1" res="-2.0861396566033363e-02" rms="4.2930221557617188e-01" purity="3.2592654228210449e-01" nType="-99"/>
        </Node>
        <Node pos="r" depth="1" NCoef="0" IVar="7" Cut="4.7698584385216236e-03" cType="1" res="6.5671056509017944e-02" rms="3.8447928428649902e-01" purity="7.0705217123031616e-01" nType="0">
          <Node pos="l" depth="2" NCoef="0" IVar="-1" Cut="0.0000000000000000e+00" cType="1" res="2.3846926167607307e-02" rms="3.6003851890563965e-01" purity="7.7090054750442505e-01" nType="-99"/>
          <Node pos="r" depth="2" NCoef="0" IVar="-1" Cut="0.0000000000000000e+00" cType="1" res="-9.1457935050129890e-03" rms="4.7238945960998535e-01" purity="3.9447247982025146e-01" nType="-99"/>
        </Node>
      </Node>
    </BinaryTree>
    <BinaryTree type="DecisionTree" boostWeight="1.0000000000000000e+00" itree="21">
      <Node pos="s" depth="0" NCoef="0" IVar="4" Cut="3.2380952835083008e+00" cType="1" res="9.5984985819086432e-04" rms="4.3328657746315002e-01" purity="5.0170779228210449e-01" nType="0">
        <Node pos="l" depth="1" NCoef="0" IVar="6" Cut="1.1904762268066406e+01" cType="1" res="3.1422782689332962e-02" rms="4.2887705564498901e-01" purity="5.6430196762084961e-01" nType="0">
          <Node pos="l" depth="2" NCoef="0" IVar="-1" Cut="0.0000000000000000e+00" cType="1" res="2.4557420983910561e-02" rms="3.4703886508941650e-01" purity="8.2775038480758667e-01" nType="-99"/>
          <Node pos="r" depth="2" NCoef="0" IVar="-1" Cut="0.0000000000000000e+00" cType="1" res="-2.4796605575829744e-03" rms="4.7708439826965332e-01" purity="3.6527946591377258e-01" nType="-99"/>
        </Node>
        <Node pos="r" depth="1" NCoef="0" IVar="4" Cut="7.2290978431701660e+00" cType="1" res="-4.1434679180383682e-02" rms="4.3582019209861755e-01" purity="4.1459703445434570e-01" nType="0">
          <Node pos="l" depth="2" NCoef="0" IVar="-1" Cut="0.0000000000000000e+00" cType="1" res="-2.1449977532029152e-02" rms="4.2507764697074890e-01" purity="3.2288995385169983e-01" nType="-99"/>
          <Node pos="r" depth="2" NCoef="0" IVar="-1" Cut="0.0000000000000000e+00" cType="1" res="8.7021263316273689e-03" rms="4.4184580445289612e-01" purity="5.6349152326583862e-01" nType="-99"/>
        </Node>
      </Node>
    </BinaryTree>
    <BinaryTree type="DecisionTree" boostWeight="1.0000000000000000e+00" itree="22">
      <Node pos="s" depth="0" NCoef="0" IVar="3" Cut="4.7638368606567383e+00" cType="1" res="7.8975819633342326e-05" rms="4.3426153063774109e-01" purity="5.0032955408096313e-01" nType="0">
        <Node pos="l" depth="1" NCoef="0" IVar="0" Cut="5.8789208531379700e-02" cType="1" res="-1.8128532916307449e-02" rms="4.4727152585983276e-01" purity="4.3699812889099121e-01" nType="0">
          <Node pos="l" depth="2" NCoef="0" IVar="-1" Cut="0.0000000000000000e+00" cType="1" res="-1.0811665095388889e-02" rms="4.3888992071151733e-01" purity="3.7685641646385193e-01" nType="-99"/>
          <Node pos="r" depth="2" NCoef="0" IVar="-1" Cut="0.0000000000000000e+00" cType="1" res="4.5679882168769836e-03" rms="4.5561146736145020e-01" purity="5.1818495988845825e-01" nType="-99"/>
        </Node>
        <Node pos="r" depth="1" NCoef="0" IVar="4" Cut="3.2380952835083008e+00" cType="1" res="6.1680480837821960e-02" rms="3.8061073422431946e-01" purity="7.1459889411926270e-01" nType="0">
          <Node pos="l" depth="2" NCoef="0" IVar="-1" Cut="0.0000000000000000e+00" cType="1" res="3.4247990697622299e-02" rms="3.1442904472351074e-01" purity="8.4346401691436768e-01" nType="-99"/>
          <Node pos="r" depth="2" NCoef="0" IVar="-1" Cut="0.0000000000000000e+00" cType="1" res="1.6099988715723157e-03" rms="4.3046832084655762e-01" purity="5.8435863256454468e-01" nType="-99"/>
        </Node>
      </Node>
    </BinaryTree>
    <BinaryTree type="DecisionTree" boostWeight="1.0000000000000000e+00" itree="23">
      <Node pos="s" depth="0" NCoef="0" IVar="6" Cut="4.7619047164916992e+00" cType="1" res="1.1202922323718667e-03" rms="4.3231374025344849e-01" purity="4.9957615137100220e-01" nType="0">
        <Node pos="l" depth="1" NCoef="0" IVar="7" Cut="5.7142861187458038e-03" cType="1" res="4.6760722994804382e-02" rms="3.7365189194679260e-01" purity="7.9879713058471680e-01" nType="0">
          <Node pos="l" depth="2" NCoef="0" IVar="-1" Cut="0.0000000000000000e+00" cType="1" res="1.9590187817811966e-02" rms="3.4858155250549316e-01" purity="8.4403866529464722e-01" nType="-99"/>
          <Node pos="r" depth="2" NCoef="0" IVar="-1" Cut="0.0000000000000000e+00" cType="1" res="-1.8963277339935303e-02" rms="4.9273505806922913e-01" purity="4.8702877759933472e-01" nType="-99"/>
        </Node>
        <Node pos="r" depth="1" NCoef="0" IVar="0" Cut="2.0314727723598480e-01" cType="1" res="-2.1571692079305649e-02" rms="4.5700266957283020e-01" purity="3.5080629587173462e-01" nType="0">
          <Node pos="l" depth="2" NCoef="0" IVar="-1" Cut="0.0000000000000000e+00" cType="1" res="-8.4218224510550499e-03" rms="4.4981458783149719e-01" purity="3.2197758555412292e-01" nType="-99"/>
          <Node pos="r" depth="2" NCoef="0" IVar="-1" Cut="0.0000000000000000e+00" cType="1" res="1.0100329294800758e-02" rms="4.8150458931922913e-01" purity="4.7742748260498047e-01" nType="-99"/>
        </Node>
      </Node>
    </BinaryTree>
    <BinaryTree type="DecisionTree" boostWeight="1.0000000000000000e+00" itree="24">
      <Node pos="s" depth="0" NCoef="0" IVar="4" Cut="4.2857141494750977e+00" cType="1" res="-3.2509998418390751e-03" rms="4.3433293700218201e-01" purity="4.9517324566841125e-01" nType="0">
        <Node pos="l" depth="1" NCoef="0" IVar="6" Cut="7.1428570747375488e+00" cType="1" res="2.0288808271288872e-02" rms="4.3447020649909973e-01" purity="5.4131144285202026e-01" nType="0">
          <Node pos="l" depth="2" NCoef="0" IVar="-1" Cut="0.0000000000000000e+00" cType="1" res="1.7428526654839516e-02" rms="3.4683859348297119e-01" purity="8.3474057912826538e-01" nType="-99"/>
          <Node pos="r" depth="2" NCoef="0" IVar="-1" Cut="0.0000000000000000e+00" cType="1" res="-2.3886385315563530e-04" rms="4.7582882642745972e-01" purity="3.7455084919929504e-01" nType="-99"/>
        </Node>
        <Node pos="r" depth="1" NCoef="0" IVar="4" Cut="8.0277414321899414e+00" cType="1" res="-4.9418795853853226e-02" rms="4.3034052848815918e-01" purity="4.0468400716781616e-01" nType="0">
          <Node pos="l" depth="2" NCoef="0" IVar="-1" Cut="0.0000000000000000e+00" cType="1" res="-2.3496100679039955e-02" rms="4.1406708955764771e-01" purity="3.1154534220695496e-01" nType="-99"/>
          <Node pos="r" depth="2" NCoef="0" IVar="-1" Cut="0.0000000000000000e+00" cType="1" res="4.9450295045971870e-03" rms="4.4498515129089355e-01" purity="5.4628992080688477e-01" nType="-99"/>
        </Node>
      </Node>
    </BinaryTree>
    <BinaryTree type="DecisionTree" boostWeight="1.0000000000000000e+00" itree="25">
      <Node pos="s" depth="0" NCoef="0" IVar="0" Cut="1.8561879172921181e-02" cType="1" res="-1.9585641566663980e-03" rms="4.3055173754692078e-01" purity="4.9917748570442200e-01" nType="0">
        <Node pos="l" depth="1" NCoef="0" IVar="4" Cut="3.2380952835083008e+00" cType="1" res="-5.1663212478160858e-02" rms="4.2832186818122864e-01" purity="3.7004682421684265e-01" nType="0">
          <Node pos="l" depth="2" NCoef="0" IVar="-1" Cut="0.0000000000000000e+00" cType="1" res="-3.8785978686064482e-03" rms="4.4496580958366394e-01" purity="4.4977879524230957e-01" nType="-99"/>
          <Node pos="r" depth="2" NCoef="0" IVar="-1" Cut="0.0000000000000000e+00" cType="1" res="-2.7455473318696022e-02" rms="3.9254510402679443e-01" purity="2.3840399086475372e-01" nType="-99"/>
        </Node>
        <Node pos="r" depth="1" NCoef="0" IVar="7" Cut="4.8341858200728893e-03" cType="1" res="2.0529318600893021e-02" rms="4.2967176437377930e-01" purity="5.5760014057159424e-01" nType="0">
          <Node pos="l" depth="2" NCoef="0" IVar="-1" Cut="0.0000000000000000e+00" cType="1" res="1.5761746093630791e-02" rms="3.8524594902992249e-01" purity="7.1774357557296753e-01" nType="-99"/>
          <Node pos="r" depth="2" NCoef="0" IVar="-1" Cut="0.0000000000000000e+00" cType="1" res="-4.7661042772233486e-03" rms="4.7189253568649292e-01" purity="3.7452101707458496e-01" nType="-99"/>
        </Node>
      </Node>
    </BinaryTree>
    <BinaryTree type="DecisionTree" boostWeight="1.0000000000000000e+00" itree="26">
      <Node pos="s" depth="0" NCoef="0" IVar="4" Cut="4.2857141494750977e+00" cType="1" res="-3.1123223016038537e-04" rms="4.3105459213256836e-01" purity="5.0286424160003662e-01" nType="0">
        <Node pos="l" depth="1" NCoef="0" IVar="3" Cut="4.7653388977050781e+00" cType="1" res="1.9413214176893234e-02" rms="4.3194678425788879e-01" purity="5.4834508895874023e-01" nType="0">
          <Node pos="l" depth="2" NCoef="0" IVar="-1" Cut="0.0000000000000000e+00" cType="1" res="7.8014761675149202e-04" rms="4.5418712496757507e-01" purity="4.7985869646072388e-01" nType="-99"/>
          <Node pos="r" depth="2" NCoef="0" IVar="-1" Cut="0.0000000000000000e+00" cType="1" res="2.6346988976001740e-02" rms="3.1863471865653992e-01" purity="8.2557231187820435e-01" nType="-99"/>
        </Node>
        <Node pos="r" depth="1" NCoef="0" IVar="4" Cut="8.0275306701660156e+00" cType="1" res="-3.8187883794307709e-02" rms="4.2678773403167725e-01" purity="4.1552773118019104e-01" nType="0">
          <Node pos="l" depth="2" NCoef="0" IVar="-1" Cut="0.0000000000000000e+00" cType="1" res="-1.9299674779176712e-02" rms="4.1677585244178772e-01" purity="3.1798526644706726e-01" nType="-99"/>
          <Node pos="r" depth="2" NCoef="0" IVar="-1" Cut="0.0000000000000000e+00" cType="1" res="4.6586198732256889e-03" rms="4.3472844362258911e-01" purity="5.5832982063293457e-01" nType="-99"/>
        </Node>
      </Node>
    </BinaryTree>
    <BinaryTree type="DecisionTree" boostWeight="1.0000000000000000e+00" itree="27">
      <Node pos="s" depth="0" NCoef="0" IVar="4" Cut="3.2380952835083008e+00" cType="1" res="-5.5961834732443094e-04" rms="4.2884847521781921e-01" purity="4.9980616569519043e-01" nType="0">
        <Node pos="l" depth="1" NCoef="0" IVar="5" Cut="4.7619047164916992e+00" cType="1" res="2.0698655396699905e-02" rms="4.2799785733222961e-01" purity="5.6255948543548584e-01" nType="0">
          <Node pos="l" depth="2" NCoef="0" IVar="-1" Cut="0.0000000000000000e+00" cType="1" res="1.8472321331501007e-02" rms="3.3330786228179932e-01" purity="8.5140293836593628e-01" nType="-99"/>
          <Node pos="r" depth="2" NCoef="0" IVar="-1" Cut="0.0000000000000000e+00" cType="1" res="-7.5054570334032178e-04" rms="4.7780433297157288e-01" purity="3.7582024931907654e-01" nType="-99"/>
        </Node>
        <Node pos="r" depth="1" NCoef="0" IVar="1" Cut="4.7905316352844238e+00" cType="1" res="-2.9983889311552048e-02" rms="4.2828556895256042e-01" purity="4.1294723749160767e-01" nType="0">
          <Node pos="l" depth="2" NCoef="0" IVar="-1" Cut="0.0000000000000000e+00" cType="1" res="-2.5189761072397232e-03" rms="4.3493050336837769e-01" purity="4.6276256442070007e-01" nType="-99"/>
          <Node pos="r" depth="2" NCoef="0" IVar="-1" Cut="0.0000000000000000e+00" cType="1" res="-3.1341332942247391e-02" rms="3.8146635890007019e-01" purity="1.7655436694622040e-01" nType="-99"/>
        </Node>
      </Node>
    </BinaryTree>
    <BinaryTree type="DecisionTree" boostWeight="1.0000000000000000e+00" itree="28">
      <Node pos="s" depth="0" NCoef="0" IVar="3" Cut="4.7638368606567383e+00" cType="1" res="-2.1975273266434669e-03" rms="4.3006512522697449e-01" purity="4.9597966670989990e-01" nType="0">
        <Node pos="l" depth="1" NCoef="0" IVar="3" Cut="9.0789234638214111e-01" cType="1" res="-1.7080288380384445e-02" rms="4.4463628530502319e-01" purity="4.2877176403999329e-01" nType="0">
          <Node pos="l" depth="2" NCoef="0" IVar="-1" Cut="0.0000000000000000e+00" cType="1" res="-1.4026223681867123e-02" rms="4.4414982199668884e-01" purity="3.5622963309288025e-01" nType="-99"/>
          <Node pos="r" depth="2" NCoef="0" IVar="-1" Cut="0.0000000000000000e+00" cType="1" res="1.7654908879194409e-04" rms="4.4361674785614014e-01" purity="4.5878249406814575e-01" nType="-99"/>
        </Node>
        <Node pos="r" depth="1" NCoef="0" IVar="6" Cut="1.6666666030883789e+01" cType="1" res="4.6431258320808411e-02" rms="3.7446290254592896e-01" purity="7.1557861566543579e-01" nType="0">
          <Node pos="l" depth="2" NCoef="0" IVar="-1" Cut="0.0000000000000000e+00" cType="1" res="2.0385105162858963e-02" rms="3.4875035285949707e-01" purity="8.2610887289047241e-01" nType="-99"/>
          <Node pos="r" depth="2" NCoef="0" IVar="-1" Cut="0.0000000000000000e+00" cType="1" res="-6.6450936719775200e-03" rms="4.4909015297889709e-01" purity="3.0719143152236938e-01" nType="-99"/>
        </Node>
      </Node>
    </BinaryTree>
    <BinaryTree type="DecisionTree" boostWeight="1.0000000000000000e+00" itree="29">
      <Node pos="s" depth="0" NCoef="0" IVar="6" Cut="1.6666666030883789e+01" cType="1" res="3.3346319105476141e-04" rms="4.2909014225006104e-01" purity="4.9922594428062439e-01" nType="0">
        <Node pos="l" depth="1" NCoef="0" IVar="2" Cut="9.0476188659667969e+01" cType="1" res="2.5603855028748512e-02" rms="4.0569305419921875e-01" purity="7.1029847860336304e-01" nType="0">
          <Node pos="l" depth="2" NCoef="0" IVar="-1" Cut="0.0000000000000000e+00" cType="1" res="9.4444127753376961e-03" rms="3.9745578169822693e-01" purity="7.2061985731124878e-01" nType="-99"/>
          <Node pos="r" depth="2" NCoef="0" IVar="-1" Cut="0.0000000000000000e+00" cType="1" res="-3.2277598977088928e-02" rms="5.0179606676101685e-01" purity="5.3270483016967773e-01" nType="-99"/>
        </Node>
        <Node pos="r" depth="1" NCoef="0" IVar="7" Cut="2.1428572013974190e-02" cType="1" res="-2.3004384711384773e-02" rms="4.4835448265075684e-01" purity="3.0429506301879883e-01" nType="0">
          <Node pos="l" depth="2" NCoef="0" IVar="-1" Cut="0.0000000000000000e+00" cType="1" res="-1.1691170744597912e-02" rms="4.2980867624282837e-01" purity="2.6098701357841492e-01" nType="-99"/>
          <Node pos="r" depth="2" NCoef="0" IVar="-1" Cut="0.0000000000000000e+00" cType="1" res="9.4663370400667191e-03" rms="4.8624059557914734e-01" purity="4.1487318277359009e-01" nType="-99"/>
        </Node>
      </Node>
    </BinaryTree>
    <BinaryTree type="DecisionTree" boostWeight="1.0000000000000000e+00" itree="30">
      <Node pos="s" depth="0" NCoef="0" IVar="6" Cut="2.3809523582458496e+00" cType="1" res="-6.2363334000110626e-03" rms="4.2686200141906738e-01" purity="4.9280014634132385e-01" nType="0">
        <Node pos="l" depth="1" NCoef="0" IVar="7" Cut="4.7619389370083809e-03" cType="1" res="3.9547495543956757e-02" rms="3.6199167370796204e-01" purity="8.1090617179870605e-01" nType="0">
          <Node pos="l" depth="2" NCoef="0" IVar="-1" Cut="0.0000000000000000e+00" cType="1" res="1.8740929663181305e-02" rms="3.3311906456947327e-01" purity="8.5791480541229248e-01" nType="-99"/>
          <Node pos="r" depth="2" NCoef="0" IVar="-1" Cut="0.0000000000000000e+00" cType="1" res="-1.5487952157855034e-02" rms="4.8223254084587097e-01" purity="5.3981995582580566e-01" nType="-99"/>
        </Node>
        <Node pos="r" depth="1" NCoef="0" IVar="4" Cut="2.1904761791229248e+00" cType="1" res="-2.0965250208973885e-02" rms="4.4472754001617432e-01" purity="3.9046359062194824e-01" nType="0">
          <Node pos="l" depth="2" NCoef="0" IVar="-1" Cut="0.0000000000000000e+00" cType="1" res="2.9426987748593092e-03" rms="4.6863117814064026e-01" purity="4.5706391334533691e-01" nType="-99"/>
          <Node pos="r" depth="2" NCoef="0" IVar="-1" Cut="0.0000000000000000e+00" cType="1" res="-9.8760249093174934e-03" rms="4.2936128377914429e-01" purity="3.5264191031455994e-01" nType="-99"/>
        </Node>
      </Node>
    </BinaryTree>
    <BinaryTree type="DecisionTree" boostWeight="1.0000000000000000e+00" itree="31">
      <Node pos="s" depth="0" NCoef="0" IVar="6" Cut="1.6666666030883789e+01" cType="1" res="2.3384653031826019e-03" rms="4.2858085036277771e-01" purity="5.0077378749847412e-01" nType="0">
        <Node pos="l" depth="1" NCoef="0" IVar="2" Cut="3.8095237731933594e+01" cType="1" res="2.5168146938085556e-02" rms="4.0343928337097168e-01" purity="7.1506625413894653e-01" nType="0">
          <Node pos="l" depth="2" NCoef="0" IVar="-1" Cut="0.0000000000000000e+00" cType="1" res="1.0731980204582214e-02" rms="3.9001610875129700e-01" purity="7.3085331916809082e-01" nType="-99"/>
          <Node pos="r" depth="2" NCoef="0" IVar="-1" Cut="0.0000000000000000e+00" cType="1" res="-2.1716501563787460e-02" rms="4.8700597882270813e-01" purity="5.8365267515182495e-01" nType="-99"/>
        </Node>
        <Node pos="r" depth="1" NCoef="0" IVar="8" Cut="4.5142855644226074e+00" cType="1" res="-1.8677933141589165e-02" rms="4.4946286082267761e-01" purity="3.0350190401077271e-01" nType="0">
          <Node pos="l" depth="2" NCoef="0" IVar="-1" Cut="0.0000000000000000e+00" cType="1" res="-7.6105725020170212e-03" rms="4.4390559196472168e-01" purity="2.9069015383720398e-01" nType="-99"/>
          <Node pos="r" depth="2" NCoef="0" IVar="-1" Cut="0.0000000000000000e+00" cType="1" res="1.8432874232530594e-02" rms="4.7537046670913696e-01" purity="3.9299124479293823e-01" nType="-99"/>
        </Node>
      </Node>
    </BinaryTree>
    <BinaryTree type="DecisionTree" boostWeight="1.0000000000000000e+00" itree="32">
      <Node pos="s" depth="0" NCoef="0" IVar="4" Cut="3.2380952835083008e+00" cType="1" res="2.9489581938832998e-03" rms="4.2965558171272278e-01" purity="5.0139355659484863e-01" nType="0">
        <Node pos="l" depth="1" NCoef="0" IVar="4" Cut="1.7409908771514893e+00" cType="1" res="2.0825725048780441e-02" rms="4.2876291275024414e-01" purity="5.6280767917633057e-01" nType="0">
          <Node pos="l" depth="2" NCoef="0" IVar="-1" Cut="0.0000000000000000e+00" cType="1" res="-3.1344471499323845e-03" rms="4.7777637839317322e-01" purity="4.4442477822303772e-01" nType="-99"/>
          <Node pos="r" depth="2" NCoef="0" IVar="-1" Cut="0.0000000000000000e+00" cType="1" res="9.5212580636143684e-03" rms="4.0428289771080017e-01" purity="6.1510062217712402e-01" nType="-99"/>
        </Node>
        <Node pos="r" depth="1" NCoef="0" IVar="0" Cut="1.8016682565212250e-01" cType="1" res="-2.1863883361220360e-02" rms="4.2966061830520630e-01" purity="4.1615110635757446e-01" nType="0">
          <Node pos="l" depth="2" NCoef="0" IVar="-1" Cut="0.0000000000000000e+00" cType="1" res="-1.2754748575389385e-02" rms="4.1557484865188599e-01" purity="3.4596720337867737e-01" nType="-99"/>
          <Node pos="r" depth="2" NCoef="0" IVar="-1" Cut="0.0000000000000000e+00" cType="1" res="1.0371343232691288e-02" rms="4.5506069064140320e-01" purity="5.8396035432815552e-01" nType="-99"/>
        </Node>
      </Node>
    </BinaryTree>
    <BinaryTree type="DecisionTree" boostWeight="1.0000000000000000e+00" itree="33">
      <Node pos="s" depth="0" NCoef="0" IVar="5" Cut="9.5238098144531250e+01" cType="1" res="-2.8019619639962912e-03" rms="4.2789715528488159e-01" purity="4.9688404798507690e-01" nType="0">
        <Node pos="l" depth="1" NCoef="0" IVar="1" Cut="2.4037387371063232e+00" cType="1" res="-1.3903975486755371e-02" rms="4.1251027584075928e-01" purity="5.1587384939193726e-01" nType="0">
          <Node pos="l" depth="2" NCoef="0" IVar="-1" Cut="0.0000000000000000e+00" cType="1" res="1.1539073893800378e-03" rms="4.0146505832672119e-01" purity="5.9845942258834839e-01" nType="-99"/>
          <Node pos="r" depth="2" NCoef="0" IVar="-1" Cut="0.0000000000000000e+00" cType="1" res="-1.4635968022048473e-02" rms="4.3653097748756409e-01" purity="3.0000689625740051e-01" nType="-99"/>
        </Node>
        <Node pos="r" depth="1" NCoef="0" IVar="7" Cut="4.7619077377021313e-03" cType="1" res="4.5243151485919952e-02" rms="4.8601999878883362e-01" purity="4.1470369696617126e-01" nType="0">
          <Node pos="l" depth="2" NCoef="0" IVar="-1" Cut="0.0000000000000000e+00" cType="1" res="-7.2965226136147976e-03" rms="4.5520064234733582e-01" purity="3.0709478259086609e-01" nType="-99"/>
          <Node pos="r" depth="2" NCoef="0" IVar="-1" Cut="0.0000000000000000e+00" cType="1" res="1.7001606523990631e-02" rms="4.9517393112182617e-01" purity="4.6211120486259460e-01" nType="-99"/>
        </Node>
      </Node>
    </BinaryTree>
    <BinaryTree type="DecisionTree" boostWeight="1.0000000000000000e+00" itree="34">
      <Node pos="s" depth="0" NCoef="0" IVar="0" Cut="1.6672241687774658e-01" cType="1" res="-2.2665902506560087e-03" rms="4.2734357714653015e-01" purity="4.9365508556365967e-01" nType="0">
        <Node pos="l" depth="1" NCoef="0" IVar="4" Cut="4.2857141494750977e+00" cType="1" res="-1.6322085633873940e-02" rms="4.2018619179725647e-01" purity="4.4847968220710754e-01" nType="0">
          <Node pos="l" depth="2" NCoef="0" IVar="-1" Cut="0.0000000000000000e+00" cType="1" res="4.8766203690320253e-04" rms="4.2649793624877930e-01" purity="5.0475084781646729e-01" nType="-99"/>
          <Node pos="r" depth="2" NCoef="0" IVar="-1" Cut="0.0000000000000000e+00" cType="1" res="-1.4236317016184330e-02" rms="4.0426507592201233e-01" purity="3.3246886730194092e-01" nType="-99"/>
        </Node>
        <Node pos="r" depth="1" NCoef="0" IVar="2" Cut="5.2380950927734375e+01" cType="1" res="3.5679657012224197e-02" rms="4.4387626647949219e-01" purity="6.1561715602874756e-01" nType="0">
          <Node pos="l" depth="2" NCoef="0" IVar="-1" Cut="0.0000000000000000e+00" cType="1" res="1.4136302284896374e-02" rms="4.2716217041015625e-01" purity="6.3326644897460938e-01" nType="-99"/>
          <Node pos="r" depth="2" NCoef="0" IVar="-1" Cut="0.0000000000000000e+00" cType="1" res="-1.5628224238753319e-02" rms="5.0702112913131714e-01" purity="5.2770739793777466e-01" nType="-99"/>
        </Node>
      </Node>
    </BinaryTree>
    <BinaryTree type="DecisionTree" boostWeight="1.0000000000000000e+00" itree="35">
      <Node pos="s" depth="0" NCoef="0" IVar="3" Cut="4.7638368606567383e+00" cType="1" res="4.2776847258210182e-03" rms="4.2612808942794800e-01" purity="5.0345551967620850e-01" nType="0">
        <Node pos="l" depth="1" NCoef="0" IVar="5" Cut="8.0952377319335938e+01" cType="1" res="-8.1119444221258163e-03" rms="4.4264128804206848e-01" purity="4.3534311652183533e-01" nType="0">
          <Node pos="l" depth="2" NCoef="0" IVar="-1" Cut="0.0000000000000000e+00" cType="1" res="-7.5048706494271755e-03" rms="4.2378407716751099e-01" purity="4.4264191389083862e-01" nType="-99"/>
          <Node pos="r" depth="2" NCoef="0" IVar="-1" Cut="0.0000000000000000e+00" cType="1" res="1.0997733101248741e-02" rms="4.8501494526863098e-01" purity="4.1571351885795593e-01" nType="-99"/>
        </Node>
        <Node pos="r" depth="1" NCoef="0" IVar="7" Cut="4.8108128830790520e-03" cType="1" res="4.4051758944988251e-02" rms="3.6531540751457214e-01" purity="7.2211468219757080e-01" nType="0">
          <Node pos="l" depth="2" NCoef="0" IVar="-1" Cut="0.0000000000000000e+00" cType="1" res="2.0168010145425797e-02" rms="3.4297785162925720e-01" purity="7.8645449876785278e-01" nType="-99"/>
          <Node pos="r" depth="2" NCoef="0" IVar="-1" Cut="0.0000000000000000e+00" cType="1" res="-1.3703854754567146e-02" rms="4.4984102249145508e-01" purity="3.8940680027008057e-01" nType="-99"/>
        </Node>
      </Node>
    </BinaryTree>
    <BinaryTree type="DecisionTree" boostWeight="1.0000000000000000e+00" itree="36">
      <Node pos="s" depth="0" NCoef="0" IVar="4" Cut="3.2380952835083008e+00" cType="1" res="-9.8370225168764591e-04" rms="4.2694291472434998e-01" purity="4.9520498514175415e-01" nType="0">
        <Node pos="l" depth="1" NCoef="0" IVar="6" Cut="4.7619047164916992e+00" cType="1" res="1.5326741151511669e-02" rms="4.2779010534286499e-01" purity="5.5954325199127197e-01" nType="0">
          <Node pos="l" depth="2" NCoef="0" IVar="-1" Cut="0.0000000000000000e+00" cType="1" res="1.7478654161095619e-02" rms="3.1176301836967468e-01" purity="8.7311309576034546e-01" nType="-99"/>
          <Node pos="r" depth="2" NCoef="0" IVar="-1" Cut="0.0000000000000000e+00" cType="1" res="-1.4567897596862167e-04" rms="4.7275072336196899e-01" purity="4.0870749950408936e-01" nType="-99"/>
        </Node>
        <Node pos="r" depth="1" NCoef="0" IVar="0" Cut="1.4025571942329407e-01" cType="1" res="-2.3677652701735497e-02" rms="4.2472055554389954e-01" purity="4.0568619966506958e-01" nType="0">
          <Node pos="l" depth="2" NCoef="0" IVar="-1" Cut="0.0000000000000000e+00" cType="1" res="-1.3631189242005348e-02" rms="4.0758374333381653e-01" purity="3.2420381903648376e-01" nType="-99"/>
          <Node pos="r" depth="2" NCoef="0" IVar="-1" Cut="0.0000000000000000e+00" cType="1" res="6.9909351877868176e-03" rms="4.5100125670433044e-01" purity="5.6132650375366211e-01" nType="-99"/>
        </Node>
      </Node>
    </BinaryTree>
    <BinaryTree type="DecisionTree" boostWeight="1.0000000000000000e+00" itree="37">
      <Node pos="s" depth="0" NCoef="0" IVar="4" Cut="3.2380952835083008e+00" cType="1" res="1.6355594852939248e-03" rms="4.2859727144241333e-01" purity="4.9884974956512451e-01" nType="0">
        <Node pos="l" depth="1" NCoef="0" IVar="2" Cut="2.3809524536132812e+01" cType="1" res="1.9608812406659126e-02" rms="4.2815923690795898e-01" purity="5.6450563669204712e-01" nType="0">
          <Node pos="l" depth="2" NCoef="0" IVar="-1" Cut="0.0000000000000000e+00" cType="1" res="6.4860773272812366e-03" rms="4.2515623569488525e-01" purity="5.6256914138793945e-01" nType="-99"/>
          <Node pos="r" depth="2" NCoef="0" IVar="-1" Cut="0.0000000000000000e+00" cType="1" res="-1.8573101609945297e-02" rms="4.6041244268417358e-01" purity="5.9255927801132202e-01" nType="-99"/>
        </Node>
        <Node pos="r" depth="1" NCoef="0" IVar="4" Cut="7.2290978431701660e+00" cType="1" res="-2.3862978443503380e-02" rms="4.2792472243309021e-01" purity="4.0570417046546936e-01" nType="0">
          <Node pos="l" depth="2" NCoef="0" IVar="-1" Cut="0.0000000000000000e+00" cType="1" res="-1.3415768742561340e-02" rms="4.2099308967590332e-01" purity="3.2262650132179260e-01" nType="-99"/>
          <Node pos="r" depth="2" NCoef="0" IVar="-1" Cut="0.0000000000000000e+00" cType="1" res="4.9822628498077393e-03" rms="4.3513542413711548e-01" purity="5.3740996122360229e-01" nType="-99"/>
        </Node>
      </Node>
    </BinaryTree>
    <BinaryTree type="DecisionTree" boostWeight="1.0000000000000000e+00" itree="38">
      <Node pos="s" depth="0" NCoef="0" IVar="4" Cut="3.2380952835083008e+00" cType="1" res="4.4038067571818829e-03" rms="4.3056705594062805e-01" purity="5.0068062543869019e-01" nType="0">
        <Node pos="l" depth="1" NCoef="0" IVar="1" Cut="3.5142856597900391e+01" cType="1" res="2.1062199026346207e-02" rms="4.2931139469146729e-01" purity="5.6917095184326172e-01" nType="0">
          <Node pos="l" depth="2" NCoef="0" IVar="-1" Cut="0.0000000000000000e+00" cType="1" res="3.1339954584836960e-03" rms="4.2076072096824646e-01" purity="5.7661277055740356e-01" nType="-99"/>
          <Node pos="r" depth="2" NCoef="0" IVar="-1" Cut="0.0000000000000000e+00" cType="1" res="2.3846920579671860e-02" rms="4.9830436706542969e-01" purity="4.9488863348960876e-01" nType="-99"/>
        </Node>
        <Node pos="r" depth="1" NCoef="0" IVar="4" Cut="7.2301688194274902e+00" cType="1" res="-1.9286299124360085e-02" rms="4.3123960494995117e-01" purity="4.0327969193458557e-01" nType="0">
          <Node pos="l" depth="2" NCoef="0" IVar="-1" Cut="0.0000000000000000e+00" cType="1" res="-1.0549474507570267e-02" rms="4.2190462350845337e-01" purity="3.3142727613449097e-01" nType="-99"/>
          <Node pos="r" depth="2" NCoef="0" IVar="-1" Cut="0.0000000000000000e+00" cType="1" res="3.8832381833344698e-03" rms="4.4430816173553467e-01" purity="5.2379167079925537e-01" nType="-99"/>
        </Node>
      </Node>
    </BinaryTree>
    <BinaryTree type="DecisionTree" boostWeight="1.0000000000000000e+00" itree="39">
      <Node pos="s" depth="0" NCoef="0" IVar="0" Cut="1.8561879172921181e-02" cType="1" res="-6.1557334847748280e-03" rms="4.2755800485610962e-01" purity="4.9172943830490112e-01" nType="0">
        <Node pos="l" depth="1" NCoef="0" IVar="7" Cut="5.7142861187458038e-03" cType="1" res="-3.6278035491704941e-02" rms="4.2676997184753418e-01" purity="3.6567604541778564e-01" nType="0">
          <Node pos="l" depth="2" NCoef="0" IVar="-1" Cut="0.0000000000000000e+00" cType="1" res="-1.3685131445527077e-02" rms="4.1114193201065063e-01" purity="3.5934093594551086e-01" nType="-99"/>
          <Node pos="r" depth="2" NCoef="0" IVar="-1" Cut="0.0000000000000000e+00" cType="1" res="6.8621160462498665e-03" rms="4.8012936115264893e-01" purity="3.9177969098091125e-01" nType="-99"/>
        </Node>
        <Node pos="r" depth="1" NCoef="0" IVar="7" Cut="4.8341858200728893e-03" cType="1" res="7.3408787138760090e-03" rms="4.2722216248512268e-01" purity="5.4820895195007324e-01" nType="0">
          <Node pos="l" depth="2" NCoef="0" IVar="-1" Cut="0.0000000000000000e+00" cType="1" res="1.0223472490906715e-02" rms="3.8305675983428955e-01" purity="7.0810574293136597e-01" nType="-99"/>
          <Node pos="r" depth="2" NCoef="0" IVar="-1" Cut="0.0000000000000000e+00" cType="1" res="-5.2211922593414783e-03" rms="4.6972498297691345e-01" purity="3.6998319625854492e-01" nType="-99"/>
        </Node>
      </Node>
    </BinaryTree>
    <BinaryTree type="DecisionTree" boostWeight="1.0000000000000000e+00" itree="40">
      <Node pos="s" depth="0" NCoef="0" IVar="2" Cut="4.7619049072265625e+01" cType="1" res="8.6999422637745738e-04" rms="4.2822587490081787e-01" purity="4.9918043613433838e-01" nType="0">
        <Node pos="l" depth="1" NCoef="0" IVar="4" Cut="3.2380952835083008e+00" cType="1" res="4.7186017036437988e-03" rms="4.2358860373497009e-01" purity="4.9863362312316895e-01" nType="0">
          <Node pos="l" depth="2" NCoef="0" IVar="-1" Cut="0.0000000000000000e+00" cType="1" res="4.5076985843479633e-03" rms="4.2637982964515686e-01" purity="5.6441700458526611e-01" nType="-99"/>
          <Node pos="r" depth="2" NCoef="0" IVar="-1" Cut="0.0000000000000000e+00" cType="1" res="-3.7438082508742809e-03" rms="4.1880252957344055e-01" purity="4.0357702970504761e-01" nType="-99"/>
        </Node>
        <Node pos="r" depth="1" NCoef="0" IVar="4" Cut="4.2857141494750977e+00" cType="1" res="-6.8800099194049835e-02" rms="4.9976238608360291e-01" purity="5.0907945632934570e-01" nType="0">
          <Node pos="l" depth="2" NCoef="0" IVar="-1" Cut="0.0000000000000000e+00" cType="1" res="-2.2102968767285347e-02" rms="4.9955663084983826e-01" purity="4.9821132421493530e-01" nType="-99"/>
          <Node pos="r" depth="2" NCoef="0" IVar="-1" Cut="0.0000000000000000e+00" cType="1" res="-1.1240055784583092e-02" rms="4.9906164407730103e-01" purity="5.1963615417480469e-01" nType="-99"/>
        </Node>
      </Node>
    </BinaryTree>
    <BinaryTree type="DecisionTree" boostWeight="1.0000000000000000e+00" itree="41">
      <Node pos="s" depth="0" NCoef="0" IVar="2" Cut="5.2380950927734375e+01" cType="1" res="4.1445437818765640e-04" rms="4.2758485674858093e-01" purity="4.9837607145309448e-01" nType="0">
        <Node pos="l" depth="1" NCoef="0" IVar="4" Cut="3.2380952835083008e+00" cType="1" res="4.5214439742267132e-03" rms="4.2381590604782104e-01" purity="4.9801602959632874e-01" nType="0">
          <Node pos="l" depth="2" NCoef="0" IVar="-1" Cut="0.0000000000000000e+00" cType="1" res="4.8699984326958656e-03" rms="4.2738077044487000e-01" purity="5.6784647703170776e-01" nType="-99"/>
          <Node pos="r" depth="2" NCoef="0" IVar="-1" Cut="0.0000000000000000e+00" cType="1" res="-4.3798466213047504e-03" rms="4.1770058870315552e-01" purity="3.9707019925117493e-01" nType="-99"/>
        </Node>
        <Node pos="r" depth="1" NCoef="0" IVar="-1" Cut="0.0000000000000000e+00" cType="1" res="-1.8862331286072731e-02" rms="4.8809099197387695e-01" purity="5.0533813238143921e-01" nType="-99"/>
      </Node>
    </BinaryTree>
    <BinaryTree type="DecisionTree" boostWeight="1.0000000000000000e+00" itree="42">
      <Node pos="s" depth="0" NCoef="0" IVar="6" Cut="4.7619047164916992e+00" cType="1" res="3.3702549990266562e-03" rms="4.2331716418266296e-01" purity="5.0220483541488647e-01" nType="0">
        <Node pos="l" depth="1" NCoef="0" IVar="1" Cut="2.3977851867675781e+00" cType="1" res="3.0396671965718269e-02" rms="3.6067971587181091e-01" purity="8.0546253919601440e-01" nType="0">
          <Node pos="l" depth="2" NCoef="0" IVar="-1" Cut="0.0000000000000000e+00" cType="1" res="1.4457350596785545e-02" rms="3.4370034933090210e-01" purity="8.3635014295578003e-01" nType="-99"/>
          <Node pos="r" depth="2" NCoef="0" IVar="-1" Cut="0.0000000000000000e+00" cType="1" res="-2.4360569193959236e-02" rms="4.7120311856269836e-01" purity="5.1490807533264160e-01" nType="-99"/>
        </Node>
        <Node pos="r" depth="1" NCoef="0" IVar="5" Cut="9.5353050231933594e+01" cType="1" res="-1.0101297870278358e-02" rms="4.5069938898086548e-01" purity="3.5104337334632874e-01" nType="0">
          <Node pos="l" depth="2" NCoef="0" IVar="-1" Cut="0.0000000000000000e+00" cType="1" res="-7.0106023922562599e-03" rms="4.3554210662841797e-01" purity="3.2426127791404724e-01" nType="-99"/>
          <Node pos="r" depth="2" NCoef="0" IVar="-1" Cut="0.0000000000000000e+00" cType="1" res="8.3912322297692299e-03" rms="4.8467576503753662e-01" purity="4.2096367478370667e-01" nType="-99"/>
        </Node>
      </Node>
    </BinaryTree>
    <BinaryTree type="DecisionTree" boostWeight="1.0000000000000000e+00" itree="43">
      <Node pos="s" depth="0" NCoef="0" IVar="2" Cut="7.1428573608398438e+01" cType="1" res="-8.1486012786626816e-03" rms="4.2526334524154663e-01" purity="4.8914393782615662e-01" nType="0">
        <Node pos="l" depth="1" NCoef="0" IVar="6" Cut="1.4285714149475098e+01" cType="1" res="-4.6060103923082352e-03" rms="4.2136326432228088e-01" purity="4.8963379859924316e-01" nType="0">
          <Node pos="l" depth="2" NCoef="0" IVar="-1" Cut="0.0000000000000000e+00" cType="1" res="6.2561566010117531e-03" rms="3.9256754517555237e-01" purity="7.3161625862121582e-01" nType="-99"/>
          <Node pos="r" depth="2" NCoef="0" IVar="-1" Cut="0.0000000000000000e+00" cType="1" res="-6.1855143867433071e-03" rms="4.4209253787994385e-01" purity="2.9428765177726746e-01" nType="-99"/>
        </Node>
        <Node pos="r" depth="1" NCoef="0" IVar="-1" Cut="0.0000000000000000e+00" cType="1" res="-2.1291054785251617e-02" rms="4.9990537762641907e-01" purity="4.7786882519721985e-01" nType="-99"/>
      </Node>
    </BinaryTree>
    <BinaryTree type="DecisionTree" boostWeight="1.0000000000000000e+00" itree="44">
      <Node pos="s" depth="0" NCoef="0" IVar="2" Cut="7.1428573608398438e+01" cType="1" res="3.3443411812186241e-03" rms="4.2821544408798218e-01" purity="4.9847835302352905e-01" nType="0">
        <Node pos="l" depth="1" NCoef="0" IVar="4" Cut="-9.5238095521926880e-01" cType="1" res="6.6881366074085236e-03" rms="4.2422029376029968e-01" purity="4.9959120154380798e-01" nType="0">
          <Node pos="l" depth="2" NCoef="0" IVar="-1" Cut="0.0000000000000000e+00" cType="1" res="2.0078053697943687e-02" rms="5.1086097955703735e-01" purity="5.1906800270080566e-01" nType="-99"/>
          <Node pos="r" depth="2" NCoef="0" IVar="-1" Cut="0.0000000000000000e+00" cType="1" res="9.8223355598747730e-04" rms="4.2074227333068848e-01" purity="4.9894961714744568e-01" nType="-99"/>
        </Node>
        <Node pos="r" depth="1" NCoef="0" IVar="-1" Cut="0.0000000000000000e+00" cType="1" res="-1.7498474568128586e-02" rms="5.0604373216629028e-01" purity="4.7266983985900879e-01" nType="-99"/>
      </Node>
    </BinaryTree>
    <BinaryTree type="DecisionTree" boostWeight="1.0000000000000000e+00" itree="45">
      <Node pos="s" depth="0" NCoef="0" IVar="4" Cut="8.4761905670166016e+00" cType="1" res="2.7965281624346972e-03" rms="4.2850303649902344e-01" purity="4.9802613258361816e-01" nType="0">
        <Node pos="l" depth="1" NCoef="0" IVar="1" Cut="4.7523811340332031e+01" cType="1" res="-2.5406624190509319e-03" rms="4.2549058794975281e-01" purity="4.8809278011322021e-01" nType="0">
          <Node pos="l" depth="2" NCoef="0" IVar="-1" Cut="0.0000000000000000e+00" cType="1" res="-1.8830839544534683e-03" rms="4.2035415768623352e-01" purity="4.9120759963989258e-01" nType="-99"/>
          <Node pos="r" depth="2" NCoef="0" IVar="-1" Cut="0.0000000000000000e+00" cType="1" res="1.7327817156910896e-02" rms="4.9673363566398621e-01" purity="4.3634757399559021e-01" nType="-99"/>
        </Node>
        <Node pos="r" depth="1" NCoef="0" IVar="1" Cut="2.4049613475799561e+00" cType="1" res="3.8664173334836960e-02" rms="4.4657102227210999e-01" purity="5.6478166580200195e-01" nType="0">
          <Node pos="l" depth="2" NCoef="0" IVar="-1" Cut="0.0000000000000000e+00" cType="1" res="1.7700755968689919e-02" rms="4.4943997263908386e-01" purity="6.5150344371795654e-01" nType="-99"/>
          <Node pos="r" depth="2" NCoef="0" IVar="-1" Cut="0.0000000000000000e+00" cType="1" res="-2.0998889580368996e-02" rms="4.1338700056076050e-01" purity="2.2485578060150146e-01" nType="-99"/>
        </Node>
      </Node>
    </BinaryTree>
    <BinaryTree type="DecisionTree" boostWeight="1.0000000000000000e+00" itree="46">
      <Node pos="s" depth="0" NCoef="0" IVar="8" Cut="4.7571430206298828e+00" cType="1" res="6.6805630922317505e-04" rms="4.2651438713073730e-01" purity="5.0095778703689575e-01" nType="0">
        <Node pos="l" depth="1" NCoef="0" IVar="1" Cut="5.4285712242126465e+00" cType="1" res="-4.3781208805739880e-03" rms="4.2083615064620972e-01" purity="5.0987082719802856e-01" nType="0">
          <Node pos="l" depth="2" NCoef="0" IVar="-1" Cut="0.0000000000000000e+00" cType="1" res="9.0338930021971464e-04" rms="4.1933962702751160e-01" purity="5.3931301832199097e-01" nType="-99"/>
          <Node pos="r" depth="2" NCoef="0" IVar="-1" Cut="0.0000000000000000e+00" cType="1" res="-1.5792250633239746e-02" rms="4.2747148871421814e-01" purity="2.8194627165794373e-01" nType="-99"/>
        </Node>
        <Node pos="r" depth="1" NCoef="0" IVar="5" Cut="4.7630859375000000e+01" cType="1" res="5.7552948594093323e-02" rms="4.8231789469718933e-01" purity="4.0048199892044067e-01" nType="0">
          <Node pos="l" depth="2" NCoef="0" IVar="-1" Cut="0.0000000000000000e+00" cType="1" res="-1.2339397333562374e-02" rms="4.5058032870292664e-01" purity="2.9266342520713806e-01" nType="-99"/>
          <Node pos="r" depth="2" NCoef="0" IVar="-1" Cut="0.0000000000000000e+00" cType="1" res="2.8935741633176804e-02" rms="4.8894912004470825e-01" purity="4.6858298778533936e-01" nType="-99"/>
        </Node>
      </Node>
    </BinaryTree>
    <BinaryTree type="DecisionTree" boostWeight="1.0000000000000000e+00" itree="47">
      <Node pos="s" depth="0" NCoef="0" IVar="3" Cut="4.7638368606567383e+00" cType="1" res="3.9541102014482021e-03" rms="4.2463290691375732e-01" purity="5.0247693061828613e-01" nType="0">
        <Node pos="l" depth="1" NCoef="0" IVar="5" Cut="9.5238098144531250e+01" cType="1" res="-6.0297222808003426e-03" rms="4.4024017453193665e-01" purity="4.3701383471488953e-01" nType="0">
          <Node pos="l" depth="2" NCoef="0" IVar="-1" Cut="0.0000000000000000e+00" cType="1" res="-5.5098892189562321e-03" rms="4.2404994368553162e-01" purity="4.3828740715980530e-01" nType="-99"/>
          <Node pos="r" depth="2" NCoef="0" IVar="-1" Cut="0.0000000000000000e+00" cType="1" res="9.7423503175377846e-03" rms="4.8676371574401855e-01" purity="4.3277871608734131e-01" nType="-99"/>
        </Node>
        <Node pos="r" depth="1" NCoef="0" IVar="6" Cut="3.3333332061767578e+01" cType="1" res="3.6898940801620483e-02" rms="3.6654722690582275e-01" purity="7.1849346160888672e-01" nType="0">
          <Node pos="l" depth="2" NCoef="0" IVar="-1" Cut="0.0000000000000000e+00" cType="1" res="1.6066526994109154e-02" rms="3.4875306487083435e-01" purity="8.0139446258544922e-01" nType="-99"/>
          <Node pos="r" depth="2" NCoef="0" IVar="-1" Cut="0.0000000000000000e+00" cType="1" res="-5.9468466788530350e-03" rms="4.4218602776527405e-01" purity="2.9034596681594849e-01" nType="-99"/>
        </Node>
      </Node>
    </BinaryTree>
    <BinaryTree type="DecisionTree" boostWeight="1.0000000000000000e+00" itree="48">
      <Node pos="s" depth="0" NCoef="0" IVar="0" Cut="4.1729861497879028e-01" cType="1" res="-2.0043652330059558e-04" rms="4.2812755703926086e-01" purity="4.9681022763252258e-01" nType="0">
        <Node pos="l" depth="1" NCoef="0" IVar="2" Cut="2.3809524536132812e+01" cType="1" res="-4.9597122706472874e-03" rms="4.2542207241058350e-01" purity="4.8047563433647156e-01" nType="0">
          <Node pos="l" depth="2" NCoef="0" IVar="-1" Cut="0.0000000000000000e+00" cType="1" res="-2.4095518165268004e-04" rms="4.2219698429107666e-01" purity="4.8110276460647583e-01" nType="-99"/>
          <Node pos="r" depth="2" NCoef="0" IVar="-1" Cut="0.0000000000000000e+00" cType="1" res="-2.6769388467073441e-02" rms="4.8830348253250122e-01" purity="4.6489733457565308e-01" nType="-99"/>
        </Node>
        <Node pos="r" depth="1" NCoef="0" IVar="7" Cut="1.0454566217958927e-02" cType="1" res="4.1679810732603073e-02" rms="4.4906654953956604e-01" purity="6.4054954051971436e-01" nType="0">
          <Node pos="l" depth="2" NCoef="0" IVar="-1" Cut="0.0000000000000000e+00" cType="1" res="1.7776139080524445e-02" rms="4.2922833561897278e-01" purity="7.2978961467742920e-01" nType="-99"/>
          <Node pos="r" depth="2" NCoef="0" IVar="-1" Cut="0.0000000000000000e+00" cType="1" res="-4.0845451876521111e-03" rms="4.8924967646598816e-01" purity="4.2091396450996399e-01" nType="-99"/>
        </Node>
      </Node>
    </BinaryTree>
    <BinaryTree type="DecisionTree" boostWeight="1.0000000000000000e+00" itree="49">
      <Node pos="s" depth="0" NCoef="0" IVar="0" Cut="1.8561879172921181e-02" cType="1" res="1.1481697438284755e-03" rms="4.2495733499526978e-01" purity="5.0139439105987549e-01" nType="0">
        <Node pos="l" depth="1" NCoef="0" IVar="7" Cut="1.0952381417155266e-02" cType="1" res="-2.0847164094448090e-02" rms="4.3019783496856689e-01" purity="3.8519364595413208e-01" nType="0">
          <Node pos="l" depth="2" NCoef="0" IVar="-1" Cut="0.0000000000000000e+00" cType="1" res="-8.3895102143287659e-03" rms="4.1860899329185486e-01" purity="3.7662830948829651e-01" nType="-99"/>
          <Node pos="r" depth="2" NCoef="0" IVar="-1" Cut="0.0000000000000000e+00" cType="1" res="1.1914822272956371e-02" rms="4.9370893836021423e-01" purity="4.4201675057411194e-01" nType="-99"/>
        </Node>
        <Node pos="r" depth="1" NCoef="0" IVar="7" Cut="5.0108865834772587e-03" cType="1" res="1.0935903526842594e-02" rms="4.2223623394966125e-01" purity="5.5310279130935669e-01" nType="0">
          <Node pos="l" depth="2" NCoef="0" IVar="-1" Cut="0.0000000000000000e+00" cType="1" res="1.0051850229501724e-02" rms="3.7704822421073914e-01" purity="7.0967900753021240e-01" nType="-99"/>
          <Node pos="r" depth="2" NCoef="0" IVar="-1" Cut="0.0000000000000000e+00" cType="1" res="-3.3572285901755095e-03" rms="4.6762931346893311e-01" purity="3.7262955307960510e-01" nType="-99"/>
        </Node>
      </Node>
    </BinaryTree>
    <BinaryTree type="DecisionTree" boostWeight="1.0000000000000000e+00" itree="50">
      <Node pos="s" depth="0" NCoef="0" IVar="4" Cut="4.2857141494750977e+00" cType="1" res="4.8241931945085526e-03" rms="4.2527306079864502e-01" purity="5.0503927469253540e-01" nType="0">
        <Node pos="l" depth="1" NCoef="0" IVar="3" Cut="4.7653388977050781e+00" cType="1" res="1.5779936686158180e-02" rms="4.2663058638572693e-01" purity="5.5339908599853516e-01" nType="0">
          <Node pos="l" depth="2" NCoef="0" IVar="-1" Cut="0.0000000000000000e+00" cType="1" res="1.5542965847998857e-03" rms="4.4885060191154480e-01" purity="4.8757094144821167e-01" nType="-99"/>
          <Node pos="r" depth="2" NCoef="0" IVar="-1" Cut="0.0000000000000000e+00" cType="1" res="1.9334351643919945e-02" rms="3.1904536485671997e-01" purity="8.1893777847290039e-01" nType="-99"/>
        </Node>
        <Node pos="r" depth="1" NCoef="0" IVar="4" Cut="7.2793922424316406e+00" cType="1" res="-1.5254944562911987e-02" rms="4.2203614115715027e-01" purity="4.1640788316726685e-01" nType="0">
          <Node pos="l" depth="2" NCoef="0" IVar="-1" Cut="0.0000000000000000e+00" cType="1" res="-1.4484353363513947e-02" rms="4.0427032113075256e-01" purity="2.9611709713935852e-01" nType="-99"/>
          <Node pos="r" depth="2" NCoef="0" IVar="-1" Cut="0.0000000000000000e+00" cType="1" res="7.4083362706005573e-03" rms="4.3803316354751587e-01" purity="5.5792832374572754e-01" nType="-99"/>
        </Node>
      </Node>
    </BinaryTree>
    <BinaryTree type="DecisionTree" boostWeight="1.0000000000000000e+00" itree="51">
      <Node pos="s" depth="0" NCoef="0" IVar="5" Cut="5.2380950927734375e+01" cType="1" res="-1.3134706532582641e-03" rms="4.2684811353683472e-01" purity="4.9660065770149231e-01" nType="0">
        <Node pos="l" depth="1" NCoef="0" IVar="1" Cut="2.3950717449188232e+00" cType="1" res="-1.4809507876634598e-02" rms="4.0296378731727600e-01" purity="5.4887658357620239e-01" nType="0">
          <Node pos="l" depth="2" NCoef="0" IVar="-1" Cut="0.0000000000000000e+00" cType="1" res="3.1648945878259838e-05" rms="3.9393034577369690e-01" purity="6.2746763229370117e-01" nType="-99"/>
          <Node pos="r" depth="2" NCoef="0" IVar="-1" Cut="0.0000000000000000e+00" cType="1" res="-1.5859246253967285e-02" rms="4.2762356996536255e-01" purity="2.9117032885551453e-01" nType="-99"/>
        </Node>
        <Node pos="r" depth="1" NCoef="0" IVar="1" Cut="2.0285715103149414e+01" cType="1" res="2.8728932142257690e-02" rms="4.7435200214385986e-01" purity="3.8023370504379272e-01" nType="0">
          <Node pos="l" depth="2" NCoef="0" IVar="-1" Cut="0.0000000000000000e+00" cType="1" res="2.6179007254540920e-03" rms="4.7085562348365784e-01" purity="3.6202132701873779e-01" nType="-99"/>
          <Node pos="r" depth="2" NCoef="0" IVar="-1" Cut="0.0000000000000000e+00" cType="1" res="2.1681351587176323e-02" rms="4.8188275098800659e-01" purity="4.5113584399223328e-01" nType="-99"/>
        </Node>
      </Node>
    </BinaryTree>
    <BinaryTree type="DecisionTree" boostWeight="1.0000000000000000e+00" itree="52">
      <Node pos="s" depth="0" NCoef="0" IVar="7" Cut="2.1428572013974190e-02" cType="1" res="-2.2476913873106241e-03" rms="4.2375978827476501e-01" purity="4.9757847189903259e-01" nType="0">
        <Node pos="l" depth="1" NCoef="0" IVar="7" Cut="1.9704592414200306e-03" cType="1" res="-1.0016287676990032e-02" rms="4.0611869096755981e-01" purity="5.1250475645065308e-01" nType="0">
          <Node pos="l" depth="2" NCoef="0" IVar="-1" Cut="0.0000000000000000e+00" cType="1" res="6.6433497704565525e-03" rms="3.6442196369171143e-01" purity="6.1285066604614258e-01" nType="-99"/>
          <Node pos="r" depth="2" NCoef="0" IVar="-1" Cut="0.0000000000000000e+00" cType="1" res="-9.0652443468570709e-03" rms="4.3423679471015930e-01" purity="4.3418571352958679e-01" nType="-99"/>
        </Node>
        <Node pos="r" depth="1" NCoef="0" IVar="1" Cut="5.4285712242126465e+00" cType="1" res="3.2837942242622375e-02" rms="4.9415367841720581e-01" purity="4.3016600608825684e-01" nType="0">
          <Node pos="l" depth="2" NCoef="0" IVar="-1" Cut="0.0000000000000000e+00" cType="1" res="1.8320160452276468e-03" rms="4.9122577905654907e-01" purity="4.0783637762069702e-01" nType="-99"/>
          <Node pos="r" depth="2" NCoef="0" IVar="-1" Cut="0.0000000000000000e+00" cType="1" res="3.2603852450847626e-02" rms="4.9154898524284363e-01" purity="5.3650987148284912e-01" nType="-99"/>
        </Node>
      </Node>
    </BinaryTree>
    <BinaryTree type="DecisionTree" boostWeight="1.0000000000000000e+00" itree="53">
      <Node pos="s" depth="0" NCoef="0" IVar="6" Cut="4.7619047164916992e+00" cType="1" res="-2.2351313382387161e-03" rms="4.2090943455696106e-01" purity="5.0062614679336548e-01" nType="0">
        <Node pos="l" depth="1" NCoef="0" IVar="2" Cut="5.2380950927734375e+01" cType="1" res="2.0804477855563164e-02" rms="3.5935947299003601e-01" purity="8.0520099401473999e-01" nType="0">
          <Node pos="l" depth="2" NCoef="0" IVar="-1" Cut="0.0000000000000000e+00" cType="1" res="1.1147668585181236e-02" rms="3.4285780787467957e-01" purity="8.2630592584609985e-01" nType="-99"/>
          <Node pos="r" depth="2" NCoef="0" IVar="-1" Cut="0.0000000000000000e+00" cType="1" res="-2.9802888631820679e-02" rms="4.8572412133216858e-01" purity="5.7140034437179565e-01" nType="-99"/>
        </Node>
        <Node pos="r" depth="1" NCoef="0" IVar="4" Cut="7.4285712242126465e+00" cType="1" res="-1.4129268005490303e-02" rms="4.4893458485603333e-01" purity="3.4339022636413574e-01" nType="0">
          <Node pos="l" depth="2" NCoef="0" IVar="-1" Cut="0.0000000000000000e+00" cType="1" res="-5.0523965619504452e-03" rms="4.4795608520507812e-01" purity="3.3843311667442322e-01" nType="-99"/>
          <Node pos="r" depth="2" NCoef="0" IVar="-1" Cut="0.0000000000000000e+00" cType="1" res="8.6552249267697334e-03" rms="4.5252001285552979e-01" purity="3.7708744406700134e-01" nType="-99"/>
        </Node>
      </Node>
    </BinaryTree>
    <BinaryTree type="DecisionTree" boostWeight="1.0000000000000000e+00" itree="54">
      <Node pos="s" depth="0" NCoef="0" IVar="4" Cut="3.2380952835083008e+00" cType="1" res="2.7729987632483244e-03" rms="4.2477196455001831e-01" purity="5.0392895936965942e-01" nType="0">
        <Node pos="l" depth="1" NCoef="0" IVar="6" Cut="2.8571428298950195e+01" cType="1" res="1.3880239799618721e-02" rms="4.2657002806663513e-01" purity="5.6701654195785522e-01" nType="0">
          <Node pos="l" depth="2" NCoef="0" IVar="-1" Cut="0.0000000000000000e+00" cType="1" res="1.0504546575248241e-02" rms="3.7253725528717041e-01" purity="7.5475531816482544e-01" nType="-99"/>
          <Node pos="r" depth="2" NCoef="0" IVar="-1" Cut="0.0000000000000000e+00" cType="1" res="-1.3811772223562002e-03" rms="4.7571364045143127e-01" purity="3.7072649598121643e-01" nType="-99"/>
        </Node>
        <Node pos="r" depth="1" NCoef="0" IVar="0" Cut="1.4025571942329407e-01" cType="1" res="-1.2621808797121048e-02" rms="4.2178377509117126e-01" purity="4.1648858785629272e-01" nType="0">
          <Node pos="l" depth="2" NCoef="0" IVar="-1" Cut="0.0000000000000000e+00" cType="1" res="-1.1644057929515839e-02" rms="4.0151327848434448e-01" purity="3.2780325412750244e-01" nType="-99"/>
          <Node pos="r" depth="2" NCoef="0" IVar="-1" Cut="0.0000000000000000e+00" cType="1" res="1.0230171494185925e-02" rms="4.5189070701599121e-01" purity="5.7966309785842896e-01" nType="-99"/>
        </Node>
      </Node>
    </BinaryTree>
    <BinaryTree type="DecisionTree" boostWeight="1.0000000000000000e+00" itree="55">
      <Node pos="s" depth="0" NCoef="0" IVar="2" Cut="2.3809524536132812e+01" cType="1" res="3.5483564715832472e-03" rms="4.2869019508361816e-01" purity="4.9893513321876526e-01" nType="0">
        <Node pos="l" depth="1" NCoef="0" IVar="2" Cut="1.1324479579925537e+00" cType="1" res="8.6138537153601646e-03" rms="4.2333674430847168e-01" purity="4.9311774969100952e-01" nType="0">
          <Node pos="l" depth="2" NCoef="0" IVar="-1" Cut="0.0000000000000000e+00" cType="1" res="-1.0379921877756715e-03" rms="4.3739613890647888e-01" purity="4.0482023358345032e-01" nType="-99"/>
          <Node pos="r" depth="2" NCoef="0" IVar="-1" Cut="0.0000000000000000e+00" cType="1" res="1.1267543770372868e-02" rms="3.8768440485000610e-01" purity="6.9513857364654541e-01" nType="-99"/>
        </Node>
        <Node pos="r" depth="1" NCoef="0" IVar="6" Cut="7.1428570747375488e+00" cType="1" res="-4.8003505915403366e-02" rms="4.7673571109771729e-01" purity="5.5813878774642944e-01" nType="0">
          <Node pos="l" depth="2" NCoef="0" IVar="-1" Cut="0.0000000000000000e+00" cType="1" res="-2.8711840510368347e-02" rms="4.6577864885330200e-01" purity="6.1772024631500244e-01" nType="-99"/>
          <Node pos="r" depth="2" NCoef="0" IVar="-1" Cut="0.0000000000000000e+00" cType="1" res="1.5128665603697300e-02" rms="4.7713154554367065e-01" purity="4.4106268882751465e-01" nType="-99"/>
        </Node>
      </Node>
    </BinaryTree>
    <BinaryTree type="DecisionTree" boostWeight="1.0000000000000000e+00" itree="56">
      <Node pos="s" depth="0" NCoef="0" IVar="0" Cut="1.8561879172921181e-02" cType="1" res="5.1537822000682354e-03" rms="4.2796677350997925e-01" purity="5.0116616487503052e-01" nType="0">
        <Node pos="l" depth="1" NCoef="0" IVar="8" Cut="6.2857145071029663e-01" cType="1" res="-1.6077630221843719e-02" rms="4.3211755156517029e-01" purity="3.8349005579948425e-01" nType="0">
          <Node pos="l" depth="2" NCoef="0" IVar="-1" Cut="0.0000000000000000e+00" cType="1" res="-9.8438132554292679e-03" rms="4.1452229022979736e-01" purity="4.1211247444152832e-01" nType="-99"/>
          <Node pos="r" depth="2" NCoef="0" IVar="-1" Cut="0.0000000000000000e+00" cType="1" res="2.8922201599925756e-03" rms="4.5324376225471497e-01" purity="3.4493622183799744e-01" nType="-99"/>
        </Node>
        <Node pos="r" depth="1" NCoef="0" IVar="2" Cut="3.3333332061767578e+01" cType="1" res="1.4871103689074516e-02" rms="4.2570042610168457e-01" purity="5.5502498149871826e-01" nType="0">
          <Node pos="l" depth="2" NCoef="0" IVar="-1" Cut="0.0000000000000000e+00" cType="1" res="5.7270773686468601e-03" rms="4.1803365945816040e-01" purity="5.5548554658889771e-01" nType="-99"/>
          <Node pos="r" depth="2" NCoef="0" IVar="-1" Cut="0.0000000000000000e+00" cType="1" res="-9.9656367674469948e-03" rms="4.8203626275062561e-01" purity="5.5113512277603149e-01" nType="-99"/>
        </Node>
      </Node>
    </BinaryTree>
    <BinaryTree type="DecisionTree" boostWeight="1.0000000000000000e+00" itree="57">
      <Node pos="s" depth="0" NCoef="0" IVar="4" Cut="4.2857141494750977e+00" cType="1" res="5.0339917652308941e-03" rms="4.2486292123794556e-01" purity="5.0377064943313599e-01" nType="0">
        <Node pos="l" depth="1" NCoef="0" IVar="3" Cut="4.7638368606567383e+00" cType="1" res="1.7286060377955437e-02" rms="4.2894476652145386e-01" purity="5.5339938402175903e-01" nType="0">
          <Node pos="l" depth="2" NCoef="0" IVar="-1" Cut="0.0000000000000000e+00" cType="1" res="2.2448473609983921e-03" rms="4.5230591297149658e-01" purity="4.8551860451698303e-01" nType="-99"/>
          <Node pos="r" depth="2" NCoef="0" IVar="-1" Cut="0.0000000000000000e+00" cType="1" res="1.8400104716420174e-02" rms="3.1591501832008362e-01" purity="8.2682818174362183e-01" nType="-99"/>
        </Node>
        <Node pos="r" depth="1" NCoef="0" IVar="0" Cut="1.8686045706272125e-01" cType="1" res="-1.9093351438641548e-02" rms="4.1565337777137756e-01" purity="4.0603941679000854e-01" nType="0">
          <Node pos="l" depth="2" NCoef="0" IVar="-1" Cut="0.0000000000000000e+00" cType="1" res="-1.0836423374712467e-02" rms="3.9539134502410889e-01" purity="3.2962220907211304e-01" nType="-99"/>
          <Node pos="r" depth="2" NCoef="0" IVar="-1" Cut="0.0000000000000000e+00" cType="1" res="6.2473746947944164e-03" rms="4.5577073097229004e-01" purity="5.8168518543243408e-01" nType="-99"/>
        </Node>
      </Node>
    </BinaryTree>
    <BinaryTree type="DecisionTree" boostWeight="1.0000000000000000e+00" itree="58">
      <Node pos="s" depth="0" NCoef="0" IVar="7" Cut="2.1428572013974190e-02" cType="1" res="2.9626258183270693e-03" rms="4.2612347006797791e-01" purity="5.0253778696060181e-01" nType="0">
        <Node pos="l" depth="1" NCoef="0" IVar="7" Cut="3.4657607320696115e-03" cType="1" res="-2.5876141153275967e-03" rms="4.1049110889434814e-01" purity="5.1744258403778076e-01" nType="0">
          <Node pos="l" depth="2" NCoef="0" IVar="-1" Cut="0.0000000000000000e+00" cType="1" res="3.0464073643088341e-03" rms="3.8056910037994385e-01" purity="5.9814327955245972e-01" nType="-99"/>
          <Node pos="r" depth="2" NCoef="0" IVar="-1" Cut="0.0000000000000000e+00" cType="1" res="-6.4518032595515251e-03" rms="4.5987087488174438e-01" purity="3.6796411871910095e-01" nType="-99"/>
        </Node>
        <Node pos="r" depth="1" NCoef="0" IVar="5" Cut="6.1904762268066406e+01" cType="1" res="2.8817865997552872e-02" rms="4.9162274599075317e-01" purity="4.3310526013374329e-01" nType="0">
          <Node pos="l" depth="2" NCoef="0" IVar="-1" Cut="0.0000000000000000e+00" cType="1" res="-4.4191419146955013e-03" rms="4.7739085555076599e-01" purity="3.7297919392585754e-01" nType="-99"/>
          <Node pos="r" depth="2" NCoef="0" IVar="-1" Cut="0.0000000000000000e+00" cType="1" res="1.3827145099639893e-02" rms="4.9904927611351013e-01" purity="4.7891861200332642e-01" nType="-99"/>
        </Node>
      </Node>
    </BinaryTree>
    <BinaryTree type="DecisionTree" boostWeight="1.0000000000000000e+00" itree="59">
      <Node pos="s" depth="0" NCoef="0" IVar="5" Cut="7.1428573608398438e+01" cType="1" res="1.1376093141734600e-02" rms="4.2972660064697266e-01" purity="5.0928485393524170e-01" nType="0">
        <Node pos="l" depth="1" NCoef="0" IVar="7" Cut="5.7142861187458038e-03" cType="1" res="2.9893261380493641e-03" rms="4.1107717156410217e-01" purity="5.4150563478469849e-01" nType="0">
          <Node pos="l" depth="2" NCoef="0" IVar="-1" Cut="0.0000000000000000e+00" cType="1" res="5.4262117482721806e-03" rms="3.9335784316062927e-01" purity="6.2142825126647949e-01" nType="-99"/>
          <Node pos="r" depth="2" NCoef="0" IVar="-1" Cut="0.0000000000000000e+00" cType="1" res="-8.5427323356270790e-03" rms="4.5176744461059570e-01" purity="3.3268159627914429e-01" nType="-99"/>
        </Node>
        <Node pos="r" depth="1" NCoef="0" IVar="7" Cut="1.0952381417155266e-02" cType="1" res="3.7548128515481949e-02" rms="4.8238328099250793e-01" purity="4.0873572230339050e-01" nType="0">
          <Node pos="l" depth="2" NCoef="0" IVar="-1" Cut="0.0000000000000000e+00" cType="1" res="-1.3955453177914023e-03" rms="4.6110847592353821e-01" purity="3.2253441214561462e-01" nType="-99"/>
          <Node pos="r" depth="2" NCoef="0" IVar="-1" Cut="0.0000000000000000e+00" cType="1" res="1.6007974743843079e-02" rms="4.9715238809585571e-01" purity="4.8418599367141724e-01" nType="-99"/>
        </Node>
      </Node>
    </BinaryTree>
    <BinaryTree type="DecisionTree" boostWeight="1.0000000000000000e+00" itree="60">
      <Node pos="s" depth="0" NCoef="0" IVar="6" Cut="3.5714286804199219e+01" cType="1" res="-5.0495150499045849e-03" rms="4.2422035336494446e-01" purity="4.9626687169075012e-01" nType="0">
        <Node pos="l" depth="1" NCoef="0" IVar="2" Cut="2.3809524536132812e+01" cType="1" res="6.5372707322239876e-03" rms="4.0670707821846008e-01" purity="6.4226144552230835e-01" nType="0">
          <Node pos="l" depth="2" NCoef="0" IVar="-1" Cut="0.0000000000000000e+00" cType="1" res="4.7324048355221748e-03" rms="3.9332661032676697e-01" purity="6.5136498212814331e-01" nType="-99"/>
          <Node pos="r" depth="2" NCoef="0" IVar="-1" Cut="0.0000000000000000e+00" cType="1" res="-1.4011810533702374e-02" rms="4.8008704185485840e-01" purity="5.8315253257751465e-01" nType="-99"/>
        </Node>
        <Node pos="r" depth="1" NCoef="0" IVar="5" Cut="2.9689460754394531e+01" cType="1" res="-1.9903725013136864e-02" rms="4.4522586464881897e-01" purity="3.0910241603851318e-01" nType="0">
          <Node pos="l" depth="2" NCoef="0" IVar="-1" Cut="0.0000000000000000e+00" cType="1" res="-3.2383281737565994e-02" rms="3.3266928791999817e-01" purity="1.4194253087043762e-01" nType="-99"/>
          <Node pos="r" depth="2" NCoef="0" IVar="-1" Cut="0.0000000000000000e+00" cType="1" res="-1.9198645604774356e-03" rms="4.5496344566345215e-01" purity="3.2837375998497009e-01" nType="-99"/>
        </Node>
      </Node>
    </BinaryTree>
    <BinaryTree type="DecisionTree" boostWeight="1.0000000000000000e+00" itree="61">
      <Node pos="s" depth="0" NCoef="0" IVar="1" Cut="3.2666667938232422e+01" cType="1" res="2.9738617595285177e-03" rms="4.2511123418807983e-01" purity="5.0417345762252808e-01" nType="0">
        <Node pos="l" depth="1" NCoef="0" IVar="1" Cut="1.3000811338424683e+00" cType="1" res="-2.1159879397600889e-03" rms="4.1925203800201416e-01" purity="5.1234418153762817e-01" nType="0">
          <Node pos="l" depth="2" NCoef="0" IVar="-1" Cut="0.0000000000000000e+00" cType="1" res="4.3577454052865505e-03" rms="4.0352538228034973e-01" purity="6.3089805841445923e-01" nType="-99"/>
          <Node pos="r" depth="2" NCoef="0" IVar="-1" Cut="0.0000000000000000e+00" cType="1" res="-6.6662579774856567e-03" rms="4.3973198533058167e-01" purity="3.4151390194892883e-01" nType="-99"/>
        </Node>
        <Node pos="r" depth="1" NCoef="0" IVar="5" Cut="5.2395824432373047e+01" cType="1" res="5.8863393962383270e-02" rms="4.8128527402877808e-01" purity="4.1445469856262207e-01" nType="0">
          <Node pos="l" depth="2" NCoef="0" IVar="-1" Cut="0.0000000000000000e+00" cType="1" res="1.5051945811137557e-03" rms="4.6738976240158081e-01" purity="3.3761879801750183e-01" nType="-99"/>
          <Node pos="r" depth="2" NCoef="0" IVar="-1" Cut="0.0000000000000000e+00" cType="1" res="2.1141460165381432e-02" rms="4.8724752664566040e-01" purity="4.6684277057647705e-01" nType="-99"/>
        </Node>
      </Node>
    </BinaryTree>
    <BinaryTree type="DecisionTree" boostWeight="1.0000000000000000e+00" itree="62">
      <Node pos="s" depth="0" NCoef="0" IVar="4" Cut="4.2857141494750977e+00" cType="1" res="-3.0722122173756361e-03" rms="4.2213755846023560e-01" purity="4.9889713525772095e-01" nType="0">
        <Node pos="l" depth="1" NCoef="0" IVar="8" Cut="4.5142855644226074e+00" cType="1" res="6.9195656105875969e-03" rms="4.2644333839416504e-01" purity="5.4680776596069336e-01" nType="0">
          <Node pos="l" depth="2" NCoef="0" IVar="-1" Cut="0.0000000000000000e+00" cType="1" res="4.9978191964328289e-04" rms="4.1856178641319275e-01" purity="5.5563324689865112e-01" nType="-99"/>
          <Node pos="r" depth="2" NCoef="0" IVar="-1" Cut="0.0000000000000000e+00" cType="1" res="1.2786743231117725e-02" rms="4.9702444672584534e-01" purity="4.5656499266624451e-01" nType="-99"/>
        </Node>
        <Node pos="r" depth="1" NCoef="0" IVar="0" Cut="3.5931512713432312e-01" cType="1" res="-2.2276330739259720e-02" rms="4.1305801272392273e-01" purity="4.0681326389312744e-01" nType="0">
          <Node pos="l" depth="2" NCoef="0" IVar="-1" Cut="0.0000000000000000e+00" cType="1" res="-9.6346903592348099e-03" rms="4.0203291177749634e-01" purity="3.6506444215774536e-01" nType="-99"/>
          <Node pos="r" depth="2" NCoef="0" IVar="-1" Cut="0.0000000000000000e+00" cType="1" res="8.9999958872795105e-03" rms="4.5864298939704895e-01" purity="6.1062860488891602e-01" nType="-99"/>
        </Node>
      </Node>
    </BinaryTree>
    <BinaryTree type="DecisionTree" boostWeight="1.0000000000000000e+00" itree="63">
      <Node pos="s" depth="0" NCoef="0" IVar="1" Cut="5.4285712242126465e+00" cType="1" res="-5.6111244484782219e-03" rms="4.2570456862449646e-01" purity="4.9492380023002625e-01" nType="0">
        <Node pos="l" depth="1" NCoef="0" IVar="4" Cut="7.4285712242126465e+00" cType="1" res="-6.4046919578686357e-04" rms="4.1972401738166809e-01" purity="5.3556269407272339e-01" nType="0">
